{"learner":{"attributes":{"scikit_learn":"{\"_estimator_type\": \"classifier\"}"},"feature_names":["amount","time_since_last_transaction","spending_deviation_score","velocity_score","geo_anomaly_score","hour_of_day","day_of_week","transaction_type_deposit","transaction_type_payment","transaction_type_transfer","transaction_type_withdrawal","transaction_type_nan","merchant_category_entertainment","merchant_category_grocery","merchant_category_online","merchant_category_other","merchant_category_restaurant","merchant_category_retail","merchant_category_travel","merchant_category_utilities","merchant_category_nan","location_Berlin","location_Dubai","location_London","location_New York","location_Singapore","location_Sydney","location_Tokyo","location_Toronto","location_nan","device_used_atm","device_used_mobile","device_used_pos","device_used_web","device_used_nan","payment_channel_ACH","payment_channel_UPI","payment_channel_card","payment_channel_wire_transfer","payment_channel_nan"],"feature_types":["float","float","float","int","float","int","int","i","i","i","i","i","i","i","i","i","i","i","i","i","i","i","i","i","i","i","i","i","i","i","i","i","i","i","i","i","i","i","i","i"],"gradient_booster":{"model":{"cats":{"enc":[],"feature_segments":[],"sorted_idx":[]},"gbtree_model_param":{"num_parallel_tree":"1","num_trees":"100"},"iteration_indptr":[0,1,2,3,4,5,6,7,8,9,10,11,12,13,14,15,16,17,18,19,20,21,22,23,24,25,26,27,28,29,30,31,32,33,34,35,36,37,38,39,40,41,42,43,44,45,46,47,48,49,50,51,52,53,54,55,56,57,58,59,60,61,62,63,64,65,66,67,68,69,70,71,72,73,74,75,76,77,78,79,80,81,82,83,84,85,86,87,88,89,90,91,92,93,94,95,96,97,98,99,100],"tree_info":[0,0,0,0,0,0,0,0,0,0,0,0,0,0,0,0,0,0,0,0,0,0,0,0,0,0,0,0,0,0,0,0,0,0,0,0,0,0,0,0,0,0,0,0,0,0,0,0,0,0,0,0,0,0,0,0,0,0,0,0,0,0,0,0,0,0,0,0,0,0,0,0,0,0,0,0,0,0,0,0,0,0,0,0,0,0,0,0,0,0,0,0,0,0,0,0,0,0,0,0],"trees":[{"base_weights":[-0E0,2.062235E-1,-1.714315E-1,2.1156856E-1,1.6960278E-1,-5.961873E-1,2.0221171E-1,2.0799047E-1,2.753758E-1,1.8980353E-1,1.0837056E-1,2.0835096E-1,1.5919073E-1,4.1820768E-1,2.0687796E-1,2.3244295E-1,4.0471092E-1,1.7381057E-1,2.98E-1,8.2578935E-2,2.948718E-1,2.15535E-1,1.8645227E-1,1.4207901E-1,2.6449788E-1,9.8507464E-1,3.5625E-1,1.4252874E-1,2.0881434E-1,5.467128E-1,2.1535023E-1,1.5821502E-1,4.9166062E-1,1.8868561E-1,7.088902E-2,8.235294E-1,2.741011E-1,-9.88075E-2,1.0947795E-1,3.7545127E-1,-3.243243E-1,2.2338316E-1,1.8352807E-1,1.7187382E-1,2.3096505E-1,1.5955026E-1,3.7554935E-2,4.0969163E-1,1.954262E-1,-4.615385E-2,3.5172415E-1,2.3720932E-1,8.602151E-2,6.1331224E-2,9.032258E-3,6.1325632E-2,7.19196E-2,-2.857143E-2,1.9362551E-1,7.493113E-2,2.0078741E-2,-1.7142858E-2,9.407666E-2,1.8090802E-1,9.1603056E-2,5.532714E-2,1.6056338E-1,1.1906615E-1,4.0871934E-3,2.883117E-1,-1.0000001E-1,1.0479134E-1,3.529412E-2,-1.7328521E-2,-2.1081083E-1,3.1160897E-2,3.2727274E-1,1.24060154E-1,-1.3846155E-1,-2.425532E-1,1.3548388E-1,6.3712254E-2,7.926146E-2,5.3067546E-2,1.6000001E-1,5.540056E-2,2.905983E-2,5.2075475E-2,8.57921E-2,2.6115704E-2,5.482503E-2,-2.5157232E-3,5.509182E-2,2.3137257E-1,1.00395255E-1,3.375E-2,1.0740741E-1],"categories":[],"categories_nodes":[],"categories_segments":[],"categories_sizes":[],"default_left":[0,0,0,0,0,0,0,0,0,0,0,0,0,0,0,0,0,0,0,0,0,0,0,0,0,0,0,0,0,0,0,0,0,0,0,0,0,0,0,0,0,0,0,0,0,0,0,0,0,0,0,0,0,0,0,0,0,0,0,0,0,0,0,0,0,0,0,0,0,0,0,0,0,0,0,0,0,0,0,0,0,0,0,0,0,0,0,0,0,0,0,0,0,0,0,0,0],"id":0,"left_children":[1,3,5,7,9,-1,11,13,15,17,19,21,23,25,27,29,31,33,35,37,39,41,43,45,47,49,51,53,55,57,59,61,63,65,67,69,71,73,75,77,79,81,83,85,87,89,91,93,95,-1,-1,-1,-1,-1,-1,-1,-1,-1,-1,-1,-1,-1,-1,-1,-1,-1,-1,-1,-1,-1,-1,-1,-1,-1,-1,-1,-1,-1,-1,-1,-1,-1,-1,-1,-1,-1,-1,-1,-1,-1,-1,-1,-1,-1,-1,-1,-1],"loss_changes":[3.1641826E3,7.916748E0,3.3160438E4,8.036133E0,6.386444E0,0E0,1.0672485E1,7.7646484E0,1.0340881E1,6.68544E0,6.1675396E0,5.539917E0,9.091736E0,5.821718E0,4.131714E0,7.4738617E0,9.931305E0,5.1834717E0,6.054058E0,5.5351973E0,7.9053097E0,6.6661377E0,5.650757E0,7.9565506E0,7.0102806E0,3.7542267E0,4.6051445E0,6.8057957E0,4.3566895E0,4.6395245E0,6.839142E0,4.141985E0,6.969223E0,4.280472E0,8.026628E0,3.7007895E0,5.6035843E0,3.5969524E0,5.3165407E0,4.605509E0,7.315551E0,9.578491E0,1.2124344E1,6.3252563E0,6.76976E0,6.2669754E0,4.201086E0,5.9006424E0,6.4453716E0,0E0,0E0,0E0,0E0,0E0,0E0,0E0,0E0,0E0,0E0,0E0,0E0,0E0,0E0,0E0,0E0,0E0,0E0,0E0,0E0,0E0,0E0,0E0,0E0,0E0,0E0,0E0,0E0,0E0,0E0,0E0,0E0,0E0,0E0,0E0,0E0,0E0,0E0,0E0,0E0,0E0,0E0,0E0,0E0,0E0,0E0,0E0,0E0],"parents":[2147483647,0,0,1,1,2,2,3,3,4,4,6,6,7,7,8,8,9,9,10,10,11,11,12,12,13,13,14,14,15,15,16,16,17,17,18,18,19,19,20,20,21,21,22,22,23,23,24,24,25,25,26,26,27,27,28,28,29,29,30,30,31,31,32,32,33,33,34,34,35,35,36,36,37,37,38,38,39,39,40,40,41,41,42,42,43,43,44,44,45,45,46,46,47,47,48,48],"right_children":[2,4,6,8,10,-1,12,14,16,18,20,22,24,26,28,30,32,34,36,38,40,42,44,46,48,50,52,54,56,58,60,62,64,66,68,70,72,74,76,78,80,82,84,86,88,90,92,94,96,-1,-1,-1,-1,-1,-1,-1,-1,-1,-1,-1,-1,-1,-1,-1,-1,-1,-1,-1,-1,-1,-1,-1,-1,-1,-1,-1,-1,-1,-1,-1,-1,-1,-1,-1,-1,-1,-1,-1,-1,-1,-1,-1,-1,-1,-1,-1,-1],"split_conditions":[0E0,1E0,5.769114E0,-2.3495547E2,1E0,-5.961873E-1,1E0,1E-2,1.6E1,6.8804045E0,8.9E-1,1E0,6.8207364E0,3E0,1.3029127E0,2.0162354E0,2.7E-1,1E0,-1.72E0,-5.6250903E3,1E0,8.1E-1,1E0,6.1554313E0,3.2E-1,-6.071567E3,-5.5229297E3,1.4E1,1E0,3E0,1.3E1,4.1590395E0,5.5715075E0,2.27E0,-5.4196665E3,1E0,7.298418E0,7.239222E0,2.66E0,1.86E0,-2.5595195E3,6.4E-1,2.07E0,1E0,2.5703267E3,6E0,1E0,7.911223E2,3.6145217E3,-4.615385E-2,3.5172415E-1,2.3720932E-1,8.602151E-2,6.1331224E-2,9.032258E-3,6.1325632E-2,7.19196E-2,-2.857143E-2,1.9362551E-1,7.493113E-2,2.0078741E-2,-1.7142858E-2,9.407666E-2,1.8090802E-1,9.1603056E-2,5.532714E-2,1.6056338E-1,1.1906615E-1,4.0871934E-3,2.883117E-1,-1.0000001E-1,1.0479134E-1,3.529412E-2,-1.7328521E-2,-2.1081083E-1,3.1160897E-2,3.2727274E-1,1.24060154E-1,-1.3846155E-1,-2.425532E-1,1.3548388E-1,6.3712254E-2,7.926146E-2,5.3067546E-2,1.6000001E-1,5.540056E-2,2.905983E-2,5.2075475E-2,8.57921E-2,2.6115704E-2,5.482503E-2,-2.5157232E-3,5.509182E-2,2.3137257E-1,1.00395255E-1,3.375E-2,1.0740741E-1],"split_indices":[1,26,1,1,32,0,19,4,3,0,4,31,0,3,0,0,4,13,2,1,16,4,36,0,4,1,1,3,15,3,3,0,0,2,1,12,0,0,2,2,1,4,2,13,1,3,33,1,1,0,0,0,0,0,0,0,0,0,0,0,0,0,0,0,0,0,0,0,0,0,0,0,0,0,0,0,0,0,0,0,0,0,0,0,0,0,0,0,0,0,0,0,0,0,0,0,0],"split_type":[0,0,0,0,0,0,0,0,0,0,0,0,0,0,0,0,0,0,0,0,0,0,0,0,0,0,0,0,0,0,0,0,0,0,0,0,0,0,0,0,0,0,0,0,0,0,0,0,0,0,0,0,0,0,0,0,0,0,0,0,0,0,0,0,0,0,0,0,0,0,0,0,0,0,0,0,0,0,0,0,0,0,0,0,0,0,0,0,0,0,0,0,0,0,0,0,0],"sum_hessian":[8.95E4,4.062725E4,4.887275E4,3.54485E4,5.17875E3,8.3395E3,4.053325E4,3.357025E4,1.87825E3,3.8925E3,1.28625E3,3.5468E4,5.06525E3,1.7475E2,3.33955E4,1.41225E3,4.66E2,3.3935E3,4.99E2,1.13125E3,1.55E2,2.67E4,8.768E3,4.35925E3,7.06E2,1.575E1,1.59E2,9.7775E2,3.241775E4,7.125E1,1.341E3,1.2225E2,3.4375E2,2.96425E3,4.2925E2,2.025E1,4.7875E2,1.4575E2,9.855E2,1.375E2,1.75E1,2.14375E4,5.2625E3,6.6085E3,2.1595E3,3.7345E3,6.2475E2,2.26E2,4.8E2,2.25E0,1.35E1,2.05E1,1.385E2,6.3E2,3.4775E2,2.838925E4,4.0285E3,9.5E0,6.175E1,1.088E3,2.53E2,5.15E1,7.075E1,2.1375E2,1.3E2,2.92975E3,3.45E1,6.325E1,3.66E2,1.825E1,2E0,3.225E2,1.5625E2,1.375E2,8.25E0,9.81E2,4.5E0,1.32E2,5.5E0,1.075E1,6.75E0,1.6889E4,4.5485E3,5.166E3,9.65E1,5.64425E3,9.6425E2,1.059E3,1.1005E3,9.065E2,2.828E3,4.76E2,1.4875E2,3.725E1,1.8875E2,3.19E2,1.61E2],"tree_param":{"num_deleted":"0","num_feature":"40","num_nodes":"97","size_leaf_vector":"1"}},{"base_weights":[-1.5497863E-3,1.4477648E-1,-1.2462611E-1,1.3818522E-1,1.6454487E-1,-1.5263656E0,1.4173879E-1,1.317848E-1,1.6369867E-1,1.3699706E-1,1.9280875E-1,2.3512922E-3,-4.6112847E-1,1.425075E-1,-6.724539E-2,1.9721772E-1,1.272595E-1,2.1373318E-1,1.4669596E-1,2.3506135E-2,1.4642878E-1,1.8589142E-1,4.3709707E-1,-9.371392E-1,1.4296412E-1,1.4500032E-1,9.01194E-2,-1.8472978E-1,1.6787973E-1,1.7527963E-1,3.5130584E-1,6.50479E-2,1.3110757E-1,2.380302E-1,3.4643378E-2,5.6636807E-2,1.6067009E-1,-2.8292589E-2,4.081848E-1,1.5849772E-1,6.456905E-2,4.159752E-1,1.7957973E-1,1.23804756E-1,5.66157E-1,-1.3415704E0,1.1042384E-1,3.4610403E-1,-6.733823E-1,1.5172122E-1,1.2470383E-1,1.1343116E-1,-1.1584411E-1,1.0857771E-1,-3.0316827E-1,5.0124294E-1,-2.8290385E-1,4.3449584E-2,9.541196E-2,-1.7747048E-1,1.1300806E-1,-1.9673321E-2,3.2609303E-2,5.3914443E-2,3.7241843E-2,7.926969E-2,1.6718015E-2,2.3869959E-1,-1.9027198E-3,-1.5812354E-1,2.2706583E-2,4.41276E-2,7.6248184E-2,-3.9768577E-2,2.393105E-2,1.6689885E-1,-1.06461234E-1,7.961444E-2,4.3449435E-2,8.1681736E-2,-1.0267192E-3,1.6423538E-2,1.5289176E-1,3.988853E-2,6.1126217E-2,8.963695E-2,-3.0252737E-1,-6.429252E-2,1.9240226E-1,-4.7709608E-1,-7.4290305E-2,-3.5412312E-1,1.2804793E-1,-3.0260822E-1,7.12027E-2,9.242819E-2,4.510129E-2,1.9978976E-2,4.1708678E-2,-1.2737912E-2,4.4471E-2,1.9807938E-1,-4.557211E-2,1.05059296E-1,-1.2501727E-1,-1.1984022E-1,1.1014986E-1,-7.762374E-2,2.1572156E-1,1.1444039E-1,-1.9065326E-1],"categories":[],"categories_nodes":[],"categories_segments":[],"categories_sizes":[],"default_left":[0,0,0,0,0,0,0,0,0,0,0,0,0,0,0,0,0,0,0,0,0,0,0,0,0,0,0,0,0,0,0,0,0,0,0,0,0,0,0,0,0,0,0,0,0,0,0,0,0,0,0,0,0,0,0,0,0,0,0,0,0,0,0,0,0,0,0,0,0,0,0,0,0,0,0,0,0,0,0,0,0,0,0,0,0,0,0,0,0,0,0,0,0,0,0,0,0,0,0,0,0,0,0,0,0,0,0,0,0,0,0],"id":1,"left_children":[1,3,5,7,9,11,13,15,17,19,21,23,-1,25,27,29,31,33,35,37,39,41,43,45,47,49,51,53,55,57,59,61,63,65,67,69,71,73,75,77,79,81,83,85,87,89,-1,91,93,95,97,99,101,103,105,107,109,-1,-1,-1,-1,-1,-1,-1,-1,-1,-1,-1,-1,-1,-1,-1,-1,-1,-1,-1,-1,-1,-1,-1,-1,-1,-1,-1,-1,-1,-1,-1,-1,-1,-1,-1,-1,-1,-1,-1,-1,-1,-1,-1,-1,-1,-1,-1,-1,-1,-1,-1,-1,-1,-1],"loss_changes":[1.5977874E3,5.258484E0,1.7992527E4,4.9431763E0,7.8606873E0,1.2621484E2,6.5148315E0,7.173401E0,5.1523438E0,5.491333E0,8.363541E0,7.350586E0,0E0,5.2560425E0,4.149238E0,5.2481422E0,5.4355774E0,6.7069855E0,5.7183533E0,7.8835554E0,4.671959E0,6.985367E0,5.4641285E0,4.317752E0,8.256696E0,5.234558E0,8.825047E0,3.5028963E0,7.685068E0,5.9392395E0,4.8849945E0,7.571568E0,7.2310486E0,6.475548E0,5.7919526E0,6.855341E0,4.963089E0,3.9442832E0,5.504654E0,5.9937134E0,8.624373E0,4.3381634E0,5.307373E0,8.466654E0,5.8092213E0,1.169692E0,0E0,5.3592963E0,3.2871675E0,6.2124023E0,7.9700165E0,8.954567E0,5.336975E0,3.886224E0,4.7569275E0,5.0229115E0,5.3913198E0,0E0,0E0,0E0,0E0,0E0,0E0,0E0,0E0,0E0,0E0,0E0,0E0,0E0,0E0,0E0,0E0,0E0,0E0,0E0,0E0,0E0,0E0,0E0,0E0,0E0,0E0,0E0,0E0,0E0,0E0,0E0,0E0,0E0,0E0,0E0,0E0,0E0,0E0,0E0,0E0,0E0,0E0,0E0,0E0,0E0,0E0,0E0,0E0,0E0,0E0,0E0,0E0,0E0,0E0],"parents":[2147483647,0,0,1,1,2,2,3,3,4,4,5,5,6,6,7,7,8,8,9,9,10,10,11,11,13,13,14,14,15,15,16,16,17,17,18,18,19,19,20,20,21,21,22,22,23,23,24,24,25,25,26,26,27,27,28,28,29,29,30,30,31,31,32,32,33,33,34,34,35,35,36,36,37,37,38,38,39,39,40,40,41,41,42,42,43,43,44,44,45,45,47,47,48,48,49,49,50,50,51,51,52,52,53,53,54,54,55,55,56,56],"right_children":[2,4,6,8,10,12,14,16,18,20,22,24,-1,26,28,30,32,34,36,38,40,42,44,46,48,50,52,54,56,58,60,62,64,66,68,70,72,74,76,78,80,82,84,86,88,90,-1,92,94,96,98,100,102,104,106,108,110,-1,-1,-1,-1,-1,-1,-1,-1,-1,-1,-1,-1,-1,-1,-1,-1,-1,-1,-1,-1,-1,-1,-1,-1,-1,-1,-1,-1,-1,-1,-1,-1,-1,-1,-1,-1,-1,-1,-1,-1,-1,-1,-1,-1,-1,-1,-1,-1,-1,-1,-1,-1,-1,-1],"split_conditions":[-5.5237184E0,1E0,5.769114E0,1.7E1,-2.5072263E3,0E0,7.643622E0,-1.51E0,1.8E1,-1.45E0,7.389428E0,1.2E-1,-4.6112847E-1,9.6E-1,7E-1,8.8E-1,-1.17E0,1E0,-5.5229297E3,1E0,1E0,3E-2,-1.6115455E3,1E0,1E0,1E0,1.9E1,1.399234E3,8.9E-1,-7.975142E2,8.7129337E-1,5E0,3E0,1E0,2.1222615E0,1.3029127E0,1E0,5.1E-1,8.5E-1,1.2E-1,3.316728E0,-8.2E-1,3.6E-1,1E0,1.1E-1,1E0,1.1042384E-1,-1.77E0,1E0,4.332183E1,2E-1,-8.9E-1,1.9530276E0,1E0,1E0,1.045464E3,1.3535875E3,4.3449584E-2,9.541196E-2,-1.7747048E-1,1.1300806E-1,-1.9673321E-2,3.2609303E-2,5.3914443E-2,3.7241843E-2,7.926969E-2,1.6718015E-2,2.3869959E-1,-1.9027198E-3,-1.5812354E-1,2.2706583E-2,4.41276E-2,7.6248184E-2,-3.9768577E-2,2.393105E-2,1.6689885E-1,-1.06461234E-1,7.961444E-2,4.3449435E-2,8.1681736E-2,-1.0267192E-3,1.6423538E-2,1.5289176E-1,3.988853E-2,6.1126217E-2,8.963695E-2,-3.0252737E-1,-6.429252E-2,1.9240226E-1,-4.7709608E-1,-7.4290305E-2,-3.5412312E-1,1.2804793E-1,-3.0260822E-1,7.12027E-2,9.242819E-2,4.510129E-2,1.9978976E-2,4.1708678E-2,-1.2737912E-2,4.4471E-2,1.9807938E-1,-4.557211E-2,1.05059296E-1,-1.2501727E-1,-1.1984022E-1,1.1014986E-1,-7.762374E-2,2.1572156E-1,1.1444039E-1,-1.9065326E-1],"split_indices":[1,31,1,3,1,1,0,2,3,2,0,4,0,4,4,4,2,21,1,18,13,4,1,28,32,8,3,1,4,1,0,3,3,15,0,0,23,4,4,4,0,2,4,22,4,14,0,2,37,1,4,2,0,32,15,1,1,0,0,0,0,0,0,0,0,0,0,0,0,0,0,0,0,0,0,0,0,0,0,0,0,0,0,0,0,0,0,0,0,0,0,0,0,0,0,0,0,0,0,0,0,0,0,0,0,0,0,0,0,0,0],"split_type":[0,0,0,0,0,0,0,0,0,0,0,0,0,0,0,0,0,0,0,0,0,0,0,0,0,0,0,0,0,0,0,0,0,0,0,0,0,0,0,0,0,0,0,0,0,0,0,0,0,0,0,0,0,0,0,0,0,0,0,0,0,0,0,0,0,0,0,0,0,0,0,0,0,0,0,0,0,0,0,0,0,0,0,0,0,0,0,0,0,0,0,0,0,0,0,0,0,0,0,0,0,0,0,0,0,0,0,0,0,0,0],"sum_hessian":[8.871813E4,4.0530715E4,4.8187418E4,3.0401955E4,1.0128758E4,7.693868E3,4.0493547E4,2.4309676E4,6.092281E3,5.1323174E3,4.996441E3,5.362806E1,7.64024E3,4.0345465E4,1.4808395E2,1.5697361E3,2.273994E4,1.542256E3,4.550025E3,3.9406476E2,4.738253E3,4.8605684E3,1.3587221E2,6.244094E0,4.7383965E1,3.8511176E4,1.8342893E3,9.888744E1,4.9196514E1,1.3759714E3,1.937646E2,1.3256809E3,2.1414258E4,1.3577252E3,1.8453085E2,6.118543E2,3.9381707E3,3.4811584E2,4.594892E1,4.128616E3,6.0963654E2,1.2804276E2,4.732526E3,4.0213478E1,9.565873E1,4.745742E0,1.4983523E0,3.8403625E1,8.980337E0,2.8926207E4,9.584968E3,1.64819E3,1.8609935E2,2.846886E1,7.041859E1,2.8217321E1,2.0979193E1,1.135754E3,2.4021745E2,4.49574E0,1.8926886E2,3.3190994E2,9.9377106E2,2.6818372E3,1.873242E4,1.1867119E3,1.7101323E2,8.489271E0,1.7604158E2,1.84962E1,5.933581E2,3.4409917E3,4.971789E2,1.7705217E2,1.7106367E2,3.870533E1,7.2435923E0,4.6595645E2,3.6626597E3,1.4960667E2,4.6002985E2,2.6690607E1,1.0135214E2,1.6182943E3,3.1142314E3,3.546803E1,4.7454486E0,8.242706E0,8.741602E1,3.4968371E0,1.2489046E0,1.2445853E0,3.7159042E1,6.48508E0,2.4952579E0,2.5175368E2,2.8674453E4,1.8967555E3,7.6882124E3,3.0078406E2,1.3474059E3,7.4948263E0,1.7860452E2,1.9728024E1,8.740838E0,6.192642E1,8.4921665E0,6.244142E0,2.197318E1,7.245529E0,1.3733664E1],"tree_param":{"num_deleted":"0","num_feature":"40","num_nodes":"111","size_leaf_vector":"1"}},{"base_weights":[-4.2044893E-3,1.0160833E-1,-9.555557E-2,9.9274404E-2,1.4437787E-1,-1.3200495E0,9.944299E-2,1.0289926E-1,7.376098E-2,6.1575327E-2,1.9314224E-1,-1.5052406E-2,-3.9926565E-1,1.0372492E-1,6.9462396E-2,1.0683739E-1,7.60196E-2,9.694798E-2,6.363396E-3,-7.481733E-1,6.828288E-2,1.5104094E-1,3.154139E-1,-3.5815206E-1,5.23009E-2,9.944095E-2,1.374111E-1,6.024159E-2,2.4217731E-1,1.11993626E-1,7.624125E-2,9.283225E-2,2.4871837E-2,1.0878181E-1,-3.3150926E-2,-1.3849467E-1,3.6632914E-2,1.3455988E-1,-1.2835376E0,2.838098E-1,4.7900576E-2,1.7763187E-1,-4.0957928E-2,1.3729344E-1,5.183911E-1,-6.689833E-1,1.5359688E-1,1.08227E-1,6.7127965E-2,1.3061391E-1,5.875609E-1,4.3780985E-1,5.5822033E-2,3.2502338E-1,-1.1529818E-1,2.6666911E-2,3.5487108E-2,3.0141873E-2,1.027903E-3,5.8966372E-2,2.2633126E-2,1.5803008E-1,3.434263E-3,4.354554E-2,1.6003836E-2,-4.7531623E-2,3.428624E-2,-2.0933358E-1,-1.7783554E-2,7.822925E-2,-9.575302E-4,-4.6089017E-1,-9.535648E-2,-1.746526E-1,1.14917204E-1,6.108399E-2,4.7378414E-3,1.4253394E-1,4.727282E-2,1.0667982E-1,-5.8576573E-2,4.8460793E-2,-1.4005661E-1,1.23934366E-1,3.103882E-1,-3.0352768E-1,9.093174E-2,9.1645315E-2,-1.3707094E-1,3.0432474E-2,4.5387775E-2,-1.3199265E-2,2.2276215E-2,5.533683E-2,2.9950006E-2,6.2290043E-2,2.2953421E-1,-1.6554087E-1,2.0636106E-1,2.1121824E-2,-6.8405312E-3,8.31904E-2,3.0216005E-1,-6.494449E-2,1.8385208E-1],"categories":[],"categories_nodes":[],"categories_segments":[],"categories_sizes":[],"default_left":[0,0,0,0,0,0,0,0,0,0,0,0,0,0,0,0,0,0,0,0,0,0,0,0,0,0,0,0,0,0,0,0,0,0,0,0,0,0,0,0,0,0,0,0,0,0,0,0,0,0,0,0,0,0,0,0,0,0,0,0,0,0,0,0,0,0,0,0,0,0,0,0,0,0,0,0,0,0,0,0,0,0,0,0,0,0,0,0,0,0,0,0,0,0,0,0,0,0,0,0,0,0,0,0,0],"id":2,"left_children":[1,3,5,7,9,11,13,15,17,19,21,23,-1,25,27,29,31,33,35,37,39,41,43,-1,45,47,49,51,53,55,57,59,61,63,65,67,69,-1,71,73,75,77,79,81,83,85,87,89,91,93,95,97,99,101,103,-1,-1,-1,-1,-1,-1,-1,-1,-1,-1,-1,-1,-1,-1,-1,-1,-1,-1,-1,-1,-1,-1,-1,-1,-1,-1,-1,-1,-1,-1,-1,-1,-1,-1,-1,-1,-1,-1,-1,-1,-1,-1,-1,-1,-1,-1,-1,-1,-1,-1],"loss_changes":[8.4397034E2,4.0238037E0,1.1188683E4,3.5403748E0,8.431698E0,9.100586E1,5.1819763E0,3.5474548E0,7.463192E0,4.2687607E0,6.7248E0,4.3514304E0,0E0,5.0903625E0,8.0354595E0,4.6129456E0,3.6916885E0,5.474411E0,5.370321E0,4.7164993E0,3.3736553E0,5.013403E0,1.207848E1,0E0,3.9063494E0,8.902039E0,1.21249695E1,7.985077E0,7.614643E0,3.6362305E0,7.4595566E0,5.8154564E0,7.163264E0,6.55986E0,5.5051255E0,9.337883E0,9.041981E0,0E0,6.6486216E-1,5.9312854E0,3.5247502E0,5.0647736E0,7.417725E0,2.7167504E0,8.089119E0,2.5050087E0,4.4478283E0,7.194031E0,5.31789E0,6.494377E0,3.8233948E0,1.4086084E1,5.443059E0,6.4913216E0,3.7336679E0,0E0,0E0,0E0,0E0,0E0,0E0,0E0,0E0,0E0,0E0,0E0,0E0,0E0,0E0,0E0,0E0,0E0,0E0,0E0,0E0,0E0,0E0,0E0,0E0,0E0,0E0,0E0,0E0,0E0,0E0,0E0,0E0,0E0,0E0,0E0,0E0,0E0,0E0,0E0,0E0,0E0,0E0,0E0,0E0,0E0,0E0,0E0,0E0,0E0,0E0],"parents":[2147483647,0,0,1,1,2,2,3,3,4,4,5,5,6,6,7,7,8,8,9,9,10,10,11,11,13,13,14,14,15,15,16,16,17,17,18,18,19,19,20,20,21,21,22,22,24,24,25,25,26,26,27,27,28,28,29,29,30,30,31,31,32,32,33,33,34,34,35,35,36,36,38,38,39,39,40,40,41,41,42,42,43,43,44,44,45,45,46,46,47,47,48,48,49,49,50,50,51,51,52,52,53,53,54,54],"right_children":[2,4,6,8,10,12,14,16,18,20,22,24,-1,26,28,30,32,34,36,38,40,42,44,-1,46,48,50,52,54,56,58,60,62,64,66,68,70,-1,72,74,76,78,80,82,84,86,88,90,92,94,96,98,100,102,104,-1,-1,-1,-1,-1,-1,-1,-1,-1,-1,-1,-1,-1,-1,-1,-1,-1,-1,-1,-1,-1,-1,-1,-1,-1,-1,-1,-1,-1,-1,-1,-1,-1,-1,-1,-1,-1,-1,-1,-1,-1,-1,-1,-1,-1,-1,-1,-1,-1,-1],"split_conditions":[-5.5237184E0,-2.3495547E2,5.769114E0,1E0,3.8E-1,0E0,1E0,1E0,1E0,-2.43E0,1E0,-1.77E0,-3.9926565E-1,5.8146763E3,2E1,1E0,1E0,9.2E-1,-5.2320405E3,7E0,-1.32E0,1E0,7.1E-1,-3.5815206E-1,1.2E-1,3.9467083E3,2.16E0,-2.28E0,5.2018896E3,-7.9E-1,1E0,-5.5229297E3,8.7129337E-1,-2.1429526E3,-2.4556206E3,3E0,-4.160012E3,1.3455988E-1,1.4E-1,3E-2,7E-2,2.171337E0,3.577389E0,7E-1,9.8E-1,1E0,1E0,3.2440845E3,2.1222615E0,-3.6E-1,3.7319388E0,3.143721E0,8.5E-1,4.7709644E3,7.008776E0,2.6666911E-2,3.5487108E-2,3.0141873E-2,1.027903E-3,5.8966372E-2,2.2633126E-2,1.5803008E-1,3.434263E-3,4.354554E-2,1.6003836E-2,-4.7531623E-2,3.428624E-2,-2.0933358E-1,-1.7783554E-2,7.822925E-2,-9.575302E-4,-4.6089017E-1,-9.535648E-2,-1.746526E-1,1.14917204E-1,6.108399E-2,4.7378414E-3,1.4253394E-1,4.727282E-2,1.0667982E-1,-5.8576573E-2,4.8460793E-2,-1.4005661E-1,1.23934366E-1,3.103882E-1,-3.0352768E-1,9.093174E-2,9.1645315E-2,-1.3707094E-1,3.0432474E-2,4.5387775E-2,-1.3199265E-2,2.2276215E-2,5.533683E-2,2.9950006E-2,6.2290043E-2,2.2953421E-1,-1.6554087E-1,2.0636106E-1,2.1121824E-2,-6.8405312E-3,8.31904E-2,3.0216005E-1,-6.494449E-2,1.8385208E-1],"split_indices":[1,1,1,16,4,1,19,26,30,2,35,2,0,1,3,18,32,4,1,3,2,25,4,0,4,1,2,2,1,2,10,1,0,1,1,3,1,0,4,4,4,0,0,4,2,28,32,1,0,2,0,0,4,1,0,0,0,0,0,0,0,0,0,0,0,0,0,0,0,0,0,0,0,0,0,0,0,0,0,0,0,0,0,0,0,0,0,0,0,0,0,0,0,0,0,0,0,0,0,0,0,0,0,0,0],"split_type":[0,0,0,0,0,0,0,0,0,0,0,0,0,0,0,0,0,0,0,0,0,0,0,0,0,0,0,0,0,0,0,0,0,0,0,0,0,0,0,0,0,0,0,0,0,0,0,0,0,0,0,0,0,0,0,0,0,0,0,0,0,0,0,0,0,0,0,0,0,0,0,0,0,0,0,0,0,0,0,0,0,0,0,0,0,0,0,0,0,0,0,0,0,0,0,0,0,0,0,0,0,0,0,0,0],"sum_hessian":[8.731025E4,4.045302E4,4.6857227E4,3.836289E4,2.09013E3,6.4360796E3,4.0421145E4,3.3587816E4,4.7750747E3,7.7553076E2,1.3145992E3,5.302076E1,6.3830586E3,3.5367395E4,5.05375E3,2.9293115E4,4.2947007E3,3.5524688E3,1.222606E3,5.4631805E0,7.700676E2,9.7955005E2,3.3504913E2,1.9617655E0,5.1058994E1,3.1380586E4,3.9868093E3,4.798898E3,2.5485202E2,2.5066166E4,4.22695E3,3.2316262E3,1.0630743E3,3.2564272E3,2.960414E2,2.107005E2,1.01190546E3,1.7387418E0,3.7244387E0,6.541636E1,7.0465125E2,8.604558E2,1.1909423E2,1.7934407E2,1.5570506E2,5.597489E0,4.5461506E1,2.4670271E4,6.7103154E3,3.9287756E3,5.803374E1,5.438817E1,4.74451E3,2.0697557E2,4.787645E1,5.371648E3,1.9694518E4,3.1712336E3,1.0557166E3,4.6250177E2,2.7691245E3,2.6697386E1,1.036377E3,1.9653751E3,1.2910522E3,1.6000247E2,1.3603894E2,2.5171995E1,1.855285E2,1.5183548E2,8.6007E2,2.4834986E0,1.24094E0,6.225944E0,5.919042E1,1.1954648E2,5.851048E2,5.291378E1,8.0754205E2,3.2993492E1,8.610074E1,1.7312956E2,6.2145047E0,1.3082587E2,2.4879198E1,4.108094E0,1.4893948E0,3.6804466E1,8.65704E0,2.13152E4,3.3550718E3,4.0406528E2,6.30625E3,1.4272318E3,2.501544E3,1.917423E1,3.8859512E1,1.0727489E1,4.366068E1,4.002234E3,7.4227563E2,1.9475768E2,1.2217885E1,4.2652122E1,5.2243247E0],"tree_param":{"num_deleted":"0","num_feature":"40","num_nodes":"105","size_leaf_vector":"1"}},{"base_weights":[-5.891561E-3,7.131548E-2,-7.438218E-2,6.790091E-2,9.9845804E-2,-1.2004749E0,6.979701E-2,6.876467E-2,-2.9695718E-2,1.4832893E-1,6.85067E-2,-2.3211302E-2,-3.6373612E-1,2.5177415E-2,7.196501E-2,5.428747E-2,7.429898E-2,-8.515022E-2,3.119928E-1,1.31498E-1,2.6822472E-1,8.9909345E-2,-7.7301316E-2,-1.826655E-1,3.8475236E-1,5.6606025E-2,-1.2533453E-1,6.315017E-2,8.3915405E-2,-6.6086635E-2,5.8537763E-2,8.621664E-2,5.754597E-2,-1.2443885E-1,3.8366988E-1,1.938413E-2,8.7666994E-1,8.3017185E-2,1.9084552E-1,2.0854023E-1,7.524693E-1,1.24317534E-1,-8.488391E-3,-1.7780438E-2,-4.3661112E-1,-6.2240523E-1,1.8674287E-1,6.6686094E-1,-2.698664E-1,1.7661601E-2,1.7065166E-1,-2.0375659E-1,7.857199E-2,9.850804E-2,5.509365E-2,1.4199665E-1,7.753367E-2,1.4005506E-3,-6.941224E-2,2.3912886E-2,1.1537734E-2,1.4464931E-2,3.0108918E-2,2.1918949E-2,3.2570893E-3,-1.6424727E-1,-2.521304E-2,2.2827947E-1,-1.388971E-1,7.084366E-2,-2.5794703E-1,-3.0505842E-2,3.3747852E-1,3.5020743E-2,-3.2610483E-2,7.127315E-2,-1.1526616E-2,4.8211217E-2,1.7070602E-1,3.1087607E-1,9.365777E-2,7.394385E-2,2.8449137E-2,-1.7863754E-2,5.7343647E-2,-9.640396E-5,-4.08107E-1,2.2408552E-1,-1.5541807E-1,-2.7141923E-1,6.2105626E-2,1.166614E-1,-1.6457775E-1,2.5655314E-1,-1.5326807E-1,1.0052645E-2,-9.77632E-2,3.049774E-2,1.9974129E-1,-7.9190254E-2,6.594457E-2,-8.012432E-2,7.093659E-2,3.7871413E-2,-6.7276848E-3,5.1299194E-3,1.9368205E-2,5.1795032E-2,-9.78148E-3,2.0497914E-2,3.172678E-2],"categories":[],"categories_nodes":[],"categories_segments":[],"categories_sizes":[],"default_left":[0,0,0,0,0,0,0,0,0,0,0,0,0,0,0,0,0,0,0,0,0,0,0,0,0,0,0,0,0,0,0,0,0,0,0,0,0,0,0,0,0,0,0,0,0,0,0,0,0,0,0,0,0,0,0,0,0,0,0,0,0,0,0,0,0,0,0,0,0,0,0,0,0,0,0,0,0,0,0,0,0,0,0,0,0,0,0,0,0,0,0,0,0,0,0,0,0,0,0,0,0,0,0,0,0,0,0,0,0,0,0],"id":3,"left_children":[1,3,5,7,9,11,13,15,17,19,21,23,-1,25,27,29,31,33,35,37,39,41,43,45,47,49,51,53,55,57,59,61,63,65,67,69,71,73,75,77,79,81,83,85,87,89,91,93,-1,95,97,99,101,103,105,107,109,-1,-1,-1,-1,-1,-1,-1,-1,-1,-1,-1,-1,-1,-1,-1,-1,-1,-1,-1,-1,-1,-1,-1,-1,-1,-1,-1,-1,-1,-1,-1,-1,-1,-1,-1,-1,-1,-1,-1,-1,-1,-1,-1,-1,-1,-1,-1,-1,-1,-1,-1,-1,-1,-1],"loss_changes":[4.541749E2,3.926529E0,7.389597E3,3.0421295E0,6.5439262E0,7.282324E1,3.9013062E0,2.8600311E0,6.0343356E0,3.3805046E0,8.188932E0,3.5215342E0,0E0,8.858406E0,4.0480194E0,5.063648E0,5.157715E0,5.086828E0,7.3335843E0,4.260515E0,5.8375273E0,7.74321E0,7.180879E0,6.4227915E0,6.1183033E0,6.875112E0,5.1896276E0,6.303772E0,6.0422134E0,3.951088E0,4.057888E0,8.116417E0,7.78846E0,4.280628E0,7.1873217E0,5.982401E0,3.7969446E0,5.312306E0,7.160536E0,3.1164856E0,2.472104E0,6.0799522E0,6.0597506E0,6.7832665E0,4.9877386E0,4.3917933E0,3.463623E0,3.333984E0,0E0,6.3017793E0,1.3395325E1,6.024536E0,5.0069265E0,1.3781807E1,6.487858E0,8.652222E0,3.8168488E0,0E0,0E0,0E0,0E0,0E0,0E0,0E0,0E0,0E0,0E0,0E0,0E0,0E0,0E0,0E0,0E0,0E0,0E0,0E0,0E0,0E0,0E0,0E0,0E0,0E0,0E0,0E0,0E0,0E0,0E0,0E0,0E0,0E0,0E0,0E0,0E0,0E0,0E0,0E0,0E0,0E0,0E0,0E0,0E0,0E0,0E0,0E0,0E0,0E0,0E0,0E0,0E0,0E0,0E0],"parents":[2147483647,0,0,1,1,2,2,3,3,4,4,5,5,6,6,7,7,8,8,9,9,10,10,11,11,13,13,14,14,15,15,16,16,17,17,18,18,19,19,20,20,21,21,22,22,23,23,24,24,25,25,26,26,27,27,28,28,29,29,30,30,31,31,32,32,33,33,34,34,35,35,36,36,37,37,38,38,39,39,40,40,41,41,42,42,43,43,44,44,45,45,46,46,47,47,49,49,50,50,51,51,52,52,53,53,54,54,55,55,56,56],"right_children":[2,4,6,8,10,12,14,16,18,20,22,24,-1,26,28,30,32,34,36,38,40,42,44,46,48,50,52,54,56,58,60,62,64,66,68,70,72,74,76,78,80,82,84,86,88,90,92,94,-1,96,98,100,102,104,106,108,110,-1,-1,-1,-1,-1,-1,-1,-1,-1,-1,-1,-1,-1,-1,-1,-1,-1,-1,-1,-1,-1,-1,-1,-1,-1,-1,-1,-1,-1,-1,-1,-1,-1,-1,-1,-1,-1,-1,-1,-1,-1,-1,-1,-1,-1,-1,-1,-1,-1,-1,-1,-1,-1,-1],"split_conditions":[-5.5237184E0,6.991131E0,5.769114E0,6.9542E0,7.18425E0,0E0,-1.68E0,2.8E-1,1E0,1E0,1E0,1.6E1,-3.6373612E-1,-1.77E0,5.405017E0,-1.81E0,2.2E-1,1.45E0,-1.8498639E3,1.2E1,1.28E0,1E0,1.8E1,-2.6E-1,1E0,4.297043E3,1E0,-7.6E-1,5.629059E0,-1.5247367E3,1.4E-1,3.2580965E0,1E0,9E-2,1.99E0,-2.3007986E3,1E-1,1E0,8.3E-1,1E0,1.72E0,5E0,1.7E1,-4.308022E1,4E-2,1E0,6.3128595E0,1E0,-2.698664E-1,4.0130547E3,1E0,8.7E-1,3.2E-1,8.2E-1,-3.1E-1,1.8E1,1E0,1.4005506E-3,-6.941224E-2,2.3912886E-2,1.1537734E-2,1.4464931E-2,3.0108918E-2,2.1918949E-2,3.2570893E-3,-1.6424727E-1,-2.521304E-2,2.2827947E-1,-1.388971E-1,7.084366E-2,-2.5794703E-1,-3.0505842E-2,3.3747852E-1,3.5020743E-2,-3.2610483E-2,7.127315E-2,-1.1526616E-2,4.8211217E-2,1.7070602E-1,3.1087607E-1,9.365777E-2,7.394385E-2,2.8449137E-2,-1.7863754E-2,5.7343647E-2,-9.640396E-5,-4.08107E-1,2.2408552E-1,-1.5541807E-1,-2.7141923E-1,6.2105626E-2,1.166614E-1,-1.6457775E-1,2.5655314E-1,-1.5326807E-1,1.0052645E-2,-9.77632E-2,3.049774E-2,1.9974129E-1,-7.9190254E-2,6.594457E-2,-8.012432E-2,7.093659E-2,3.7871413E-2,-6.7276848E-3,5.1299194E-3,1.9368205E-2,5.1795032E-2,-9.78148E-3,2.0497914E-2,3.172678E-2],"split_indices":[1,0,1,0,0,1,2,4,15,12,17,3,0,2,0,2,2,2,1,3,2,30,3,2,37,1,30,2,0,1,4,0,37,4,2,1,4,18,4,21,2,3,3,1,4,35,0,18,0,1,12,4,4,4,2,3,36,0,0,0,0,0,0,0,0,0,0,0,0,0,0,0,0,0,0,0,0,0,0,0,0,0,0,0,0,0,0,0,0,0,0,0,0,0,0,0,0,0,0,0,0,0,0,0,0,0,0,0,0,0,0],"split_type":[0,0,0,0,0,0,0,0,0,0,0,0,0,0,0,0,0,0,0,0,0,0,0,0,0,0,0,0,0,0,0,0,0,0,0,0,0,0,0,0,0,0,0,0,0,0,0,0,0,0,0,0,0,0,0,0,0,0,0,0,0,0,0,0,0,0,0,0,0,0,0,0,0,0,0,0,0,0,0,0,0,0,0,0,0,0,0,0,0,0,0,0,0,0,0,0,0,0,0,0,0,0,0,0,0,0,0,0,0,0,0],"sum_hessian":[8.588652E4,4.037414E4,4.551238E4,3.606159E4,4.312552E3,5.164943E3,4.0347438E4,3.5745523E4,3.160634E2,1.6916906E3,2.620861E3,5.205416E1,5.1128887E3,1.8701625E3,3.8477273E4,9.888629E3,2.5856895E4,2.725763E2,4.3487103E1,1.4852838E3,2.0640683E2,2.2857302E3,3.3513095E2,3.78231E1,1.4231057E1,1.5476248E3,3.2253775E2,2.2147297E4,1.6329979E4,3.3675363E2,9.551876E3,1.5106421E4,1.0750475E4,2.5217755E2,2.0398724E1,2.9325382E1,1.4161719E1,8.18804E2,6.6647974E2,1.8503181E2,2.1375025E1,1.6933337E3,5.923963E2,2.8840515E2,4.67258E1,1.6955084E1,2.086802E1,1.2062247E1,2.1688094E0,1.1545297E3,3.9309512E2,2.3294737E2,8.959037E1,4.1078467E3,1.803945E4,1.6145393E3,1.4715439E4,2.3649025E2,1.0026338E2,4.647922E3,4.9039536E3,4.099287E3,1.1007133E4,8.0683706E3,2.6821045E3,2.088633E1,2.3129123E2,1.4181066E1,6.2176585E0,2.4112143E1,5.2132397E0,2.9857285E0,1.1175991E1,6.9666833E2,1.2213571E2,5.5360266E2,1.128771E2,1.6463086E2,2.0400948E1,1.2174319E1,9.200705E0,3.2782578E2,1.365508E3,4.7230377E2,1.20092545E2,2.8569022E2,2.7149255E0,2.482405E0,4.4243393E1,1.2581654E1,4.3734303E0,1.67382E1,4.1298184E0,1.0635572E1,1.4266752E0,1.104483E3,5.004658E1,3.460792E2,4.701594E1,2.0428497E2,2.8662405E1,2.7874105E1,6.1716267E1,3.341581E3,7.6626575E2,3.5988877E3,1.4440562E4,1.3734283E3,2.4111098E2,1.1098169E4,3.6172703E3],"tree_param":{"num_deleted":"0","num_feature":"40","num_nodes":"111","size_leaf_vector":"1"}},{"base_weights":[-6.5831887E-3,5.0048344E-2,-5.806716E-2,4.704803E-2,6.958839E-2,-1.1216284E0,4.8965435E-2,5.0888214E-2,2.1850627E-2,5.606259E-2,1.6469894E-1,-2.3652337E-2,-3.4071064E-1,5.038257E-2,-1.2240252E-2,4.898306E-2,1.03933215E-1,2.8175583E-1,1.5570468E-2,5.508481E-2,9.2408466E-1,3.8765565E-1,1.2248807E-1,-5.4196036E-1,7.072922E-2,4.8367064E-2,8.469247E-2,5.6770984E-2,-1.15342304E-1,5.7736214E-2,3.6991876E-2,1.223956E-3,1.5103216E-1,-2.331357E-1,3.81529E-1,-2.4065696E-1,2.348512E-2,2.3567788E-1,5.1322028E-2,3.8549417E-1,6.705929E-2,-1.19140565E-1,4.8147264E-1,7.001586E-2,2.76398E-1,8.7061904E-2,-4.3049055E-1,3.1398714E-1,-2.0589536E-2,5.2413903E-2,2.0112118E-2,6.554746E-2,2.1654657E-1,2.8434058E-3,4.100178E-1,-6.156519E-2,-5.0328726E-1,1.3578127E-2,2.8920183E-2,1.3418627E-2,-4.89198E-3,-1.4846333E-2,1.1648787E-1,3.1535614E-2,1.0105725E-1,-2.8602593E-2,-2.943888E-1,1.480988E-1,-1.073804E-1,1.6148096E-1,-8.615434E-2,8.574054E-3,-7.060105E-2,-2.4946237E-2,1.4268388E-1,1.087274E-2,2.9275961E-2,-9.718186E-2,3.3209378E-1,-1.399577E-1,1.5671346E-1,8.5068874E-2,-3.4687363E-3,-1.20197035E-1,1.1065855E-1,-3.1345952E-1,1.8486212E-1,-5.718862E-2,1.5359561E-1,1.4712003E-2,2.3686087E-2,7.52902E-3,-5.3675845E-2,4.1070566E-2,7.860858E-3,8.562338E-2,-6.400465E-2,-1.7378104E-1,8.453035E-3,2.6289958E-1,7.074521E-2,-1.1877531E-1,-2.9461219E-3,-2.6087537E-1,3.0943131E-2],"categories":[],"categories_nodes":[],"categories_segments":[],"categories_sizes":[],"default_left":[0,0,0,0,0,0,0,0,0,0,0,0,0,0,0,0,0,0,0,0,0,0,0,0,0,0,0,0,0,0,0,0,0,0,0,0,0,0,0,0,0,0,0,0,0,0,0,0,0,0,0,0,0,0,0,0,0,0,0,0,0,0,0,0,0,0,0,0,0,0,0,0,0,0,0,0,0,0,0,0,0,0,0,0,0,0,0,0,0,0,0,0,0,0,0,0,0,0,0,0,0,0,0,0,0],"id":4,"left_children":[1,3,5,7,9,11,13,15,17,19,21,23,-1,25,27,29,31,33,35,37,39,41,43,45,47,49,51,53,55,57,59,61,63,65,67,69,71,73,75,-1,-1,77,79,81,83,85,-1,-1,87,89,91,93,95,97,99,101,103,-1,-1,-1,-1,-1,-1,-1,-1,-1,-1,-1,-1,-1,-1,-1,-1,-1,-1,-1,-1,-1,-1,-1,-1,-1,-1,-1,-1,-1,-1,-1,-1,-1,-1,-1,-1,-1,-1,-1,-1,-1,-1,-1,-1,-1,-1,-1,-1],"loss_changes":[2.4679793E2,2.3598633E0,5.047359E3,3.3803635E0,6.890375E0,6.261914E1,3.4948502E0,3.0594025E0,7.5420337E0,3.9356623E0,6.2320843E0,2.5981715E0,0E0,2.7186737E0,6.498815E0,3.0705109E0,5.081375E0,5.689597E0,9.162489E0,3.1768427E0,1.0329423E0,5.0855436E0,4.5233164E0,4.717769E0,4.0453873E0,4.2515564E0,5.4972706E0,1.0424012E1,7.6086664E0,8.157391E0,5.0955696E0,6.521593E0,6.1091366E0,1.7947826E0,7.780648E0,5.0607553E0,5.7839155E0,7.3455462E0,3.204486E0,0E0,0E0,4.7079334E0,3.711773E0,7.3342648E0,9.0795355E0,4.0818725E0,0E0,0E0,3.9254408E0,2.9090729E0,4.6287184E0,5.3527737E0,8.243224E0,7.032699E0,5.6805706E0,5.5799665E0,9.961799E0,0E0,0E0,0E0,0E0,0E0,0E0,0E0,0E0,0E0,0E0,0E0,0E0,0E0,0E0,0E0,0E0,0E0,0E0,0E0,0E0,0E0,0E0,0E0,0E0,0E0,0E0,0E0,0E0,0E0,0E0,0E0,0E0,0E0,0E0,0E0,0E0,0E0,0E0,0E0,0E0,0E0,0E0,0E0,0E0,0E0,0E0,0E0,0E0],"parents":[2147483647,0,0,1,1,2,2,3,3,4,4,5,5,6,6,7,7,8,8,9,9,10,10,11,11,13,13,14,14,15,15,16,16,17,17,18,18,19,19,20,20,21,21,22,22,23,23,24,24,25,25,26,26,27,27,28,28,29,29,30,30,31,31,32,32,33,33,34,34,35,35,36,36,37,37,38,38,41,41,42,42,43,43,44,44,45,45,48,48,49,49,50,50,51,51,52,52,53,53,54,54,55,55,56,56],"right_children":[2,4,6,8,10,12,14,16,18,20,22,24,-1,26,28,30,32,34,36,38,40,42,44,46,48,50,52,54,56,58,60,62,64,66,68,70,72,74,76,-1,-1,78,80,82,84,86,-1,-1,88,90,92,94,96,98,100,102,104,-1,-1,-1,-1,-1,-1,-1,-1,-1,-1,-1,-1,-1,-1,-1,-1,-1,-1,-1,-1,-1,-1,-1,-1,-1,-1,-1,-1,-1,-1,-1,-1,-1,-1,-1,-1,-1,-1,-1,-1,-1,-1,-1,-1,-1,-1,-1,-1],"split_conditions":[-5.5237184E0,6.860758E0,5.769114E0,1E0,1E0,0E0,7.415693E0,-1.565899E2,3E-2,1E0,1.6E-1,2.5352829E0,-3.4071064E-1,7.132058E0,1.3E1,4.5218973E0,3.316728E0,-5.0442676E3,6E-2,-2.07E0,6.8994207E0,-5.4196665E3,1E0,2.2126603E0,2.8075938E0,1E0,1E0,1E0,1E0,3.778263E0,1E0,1E0,1.7E1,1E0,1E0,-1.54E0,2.07E0,4.2E-1,1E0,3.8549417E-1,6.705929E-2,1.21E0,-1.72E0,7.0440154E0,-5.95529E3,-1.17E0,-4.3049055E-1,3.1398714E-1,1E0,5.8146763E3,1.99E0,7.220184E0,1E0,5E-2,4E0,1.4E1,3.2E-1,1.3578127E-2,2.8920183E-2,1.3418627E-2,-4.89198E-3,-1.4846333E-2,1.1648787E-1,3.1535614E-2,1.0105725E-1,-2.8602593E-2,-2.943888E-1,1.480988E-1,-1.073804E-1,1.6148096E-1,-8.615434E-2,8.574054E-3,-7.060105E-2,-2.4946237E-2,1.4268388E-1,1.087274E-2,2.9275961E-2,-9.718186E-2,3.3209378E-1,-1.399577E-1,1.5671346E-1,8.5068874E-2,-3.4687363E-3,-1.20197035E-1,1.1065855E-1,-3.1345952E-1,1.8486212E-1,-5.718862E-2,1.5359561E-1,1.4712003E-2,2.3686087E-2,7.52902E-3,-5.3675845E-2,4.1070566E-2,7.860858E-3,8.562338E-2,-6.400465E-2,-1.7378104E-1,8.453035E-3,2.6289958E-1,7.074521E-2,-1.1877531E-1,-2.9461219E-3,-2.6087537E-1,3.0943131E-2],"split_indices":[1,0,1,7,12,1,0,1,4,10,4,0,0,0,3,0,0,1,4,2,0,1,32,0,0,19,21,21,18,0,18,18,3,26,12,2,2,4,33,0,0,2,2,0,1,2,0,0,30,1,2,0,12,4,3,3,2,0,0,0,0,0,0,0,0,0,0,0,0,0,0,0,0,0,0,0,0,0,0,0,0,0,0,0,0,0,0,0,0,0,0,0,0,0,0,0,0,0,0,0,0,0,0,0,0],"split_type":[0,0,0,0,0,0,0,0,0,0,0,0,0,0,0,0,0,0,0,0,0,0,0,0,0,0,0,0,0,0,0,0,0,0,0,0,0,0,0,0,0,0,0,0,0,0,0,0,0,0,0,0,0,0,0,0,0,0,0,0,0,0,0,0,0,0,0,0,0,0,0,0,0,0,0,0,0,0,0,0,0,0,0,0,0,0,0,0,0,0,0,0,0,0,0,0,0,0,0,0,0,0,0,0,0],"sum_hessian":[8.464492E4,4.030743E4,4.433749E4,3.494512E4,5.3623086E3,4.0531067E3,4.0284383E4,3.0322785E4,4.622336E3,4.6960645E3,6.662442E2,5.1328415E1,4.0017783E3,3.937293E4,9.114503E2,2.9273334E4,1.0494518E3,1.0802069E2,4.514315E3,4.691843E3,4.2216535E0,1.04753784E2,5.614904E2,7.1763535E0,4.415206E1,3.719061E4,2.1823228E3,5.4626074E2,3.651896E2,1.6919133E4,1.2354202E4,3.3026492E2,7.191868E2,1.7317087E1,9.0703606E1,1.3438408E2,4.379931E3,9.450454E1,4.5973384E3,2.235686E0,1.9859675E0,1.632059E1,8.84332E1,4.1981775E2,1.4167268E2,4.740042E0,2.4363112E0,2.882841E0,4.126922E1,3.2530537E4,4.660071E3,1.9069358E3,2.7538696E2,4.7478662E2,7.147411E1,3.2174753E2,4.34421E1,1.2793303E4,4.1258296E3,1.0788315E4,1.5658865E3,2.9277875E2,3.7486183E1,5.7795276E2,1.4123407E2,1.5575819E1,1.7412684E0,7.904888E1,1.1654718E1,6.978445E0,1.2740564E2,4.2962466E3,8.368447E1,4.086091E1,5.3643627E1,3.4685684E3,1.12877E3,1.461521E1,1.7053792E0,3.2275977E0,8.52056E1,1.1536129E2,3.0445645E2,1.6622606E1,1.2505007E2,1.1994969E0,3.5405455E0,3.176836E1,9.50086E0,2.886401E4,3.666527E3,4.5470664E3,1.13004326E2,6.7688104E2,1.2300547E3,2.3765349E2,3.773349E1,1.8888912E1,4.558977E2,1.8342585E1,5.313153E1,4.222921E1,2.795183E2,2.6812708E1,1.662939E1],"tree_param":{"num_deleted":"0","num_feature":"40","num_nodes":"105","size_leaf_vector":"1"}},{"base_weights":[-6.5471143E-3,3.5130538E-2,-4.522573E-2,3.2313798E-2,5.5050425E-2,-1.0640754E0,3.433184E-2,3.6159538E-2,5.3698462E-3,1.1088941E-1,3.162749E-2,-1.9075667E-2,-3.2436013E-1,2.914865E-2,4.975096E-2,1.9215198E-2,4.2949826E-2,-3.6615536E-2,3.0525396E-2,4.7188237E-1,9.931123E-2,2.386117E-2,3.0738434E-1,-5.714456E-1,6.1188668E-2,3.018163E-2,-1.0963328E-1,3.0518191E-2,8.9607134E-2,1.7539017E-1,1.6278204E-2,3.9374813E-2,9.837982E-2,-4.5312617E-2,3.1119946E-1,2.3499925E-1,2.0474646E-2,6.597525E-1,9.982698E-2,5.8931373E-2,1.8076174E-1,6.331566E-2,-2.5525637E-2,5.7249103E-2,5.7421964E-1,-8.5689265E-1,7.8420386E-2,8.995321E-1,-4.167494E-2,-1.3515157E-1,3.1022524E-2,-4.9097117E-2,-5.149913E-1,3.3042308E-2,-4.159074E-1,3.5434964E-1,8.4878154E-2,7.6160826E-2,-7.527913E-2,6.5456224E-3,-1.9518148E-2,1.23409545E-2,-4.687216E-2,2.7589753E-2,2.6270592E-1,-1.3027233E-3,-3.2795917E-2,3.6724606E-1,4.2417124E-2,-3.372224E-2,1.04183085E-1,7.091706E-2,3.5015133E-3,2.6894352E-1,-2.4101676E-2,8.8471204E-2,-2.9461873E-1,1.0145633E-2,9.751298E-2,5.9030224E-2,-1.0847569E-1,1.5039569E-2,8.8673264E-2,-2.0007512E-2,4.300836E-2,2.4503411E-1,-2.9161489E-2,2.1109983E-1,-1.0237758E-1,-3.39232E-1,1.7036939E-2,2.2035481E-2,3.395658E-1,-2.9085064E-1,1.8848028E-2,1.8141806E-1,-5.4929174E-2,1.153782E-2,3.9201067E-3,-8.210602E-3,-3.704787E-1,-2.1372207E-1,6.206773E-2,1.4814138E-2,-4.8799887E-3,1.3903749E-1,-1.5287682E-1,-3.4146667E-1,1.2843126E-1,2.8911203E-2,-4.9188677E-3],"categories":[],"categories_nodes":[],"categories_segments":[],"categories_sizes":[],"default_left":[0,0,0,0,0,0,0,0,0,0,0,0,0,0,0,0,0,0,0,0,0,0,0,0,0,0,0,0,0,0,0,0,0,0,0,0,0,0,0,0,0,0,0,0,0,0,0,0,0,0,0,0,0,0,0,0,0,0,0,0,0,0,0,0,0,0,0,0,0,0,0,0,0,0,0,0,0,0,0,0,0,0,0,0,0,0,0,0,0,0,0,0,0,0,0,0,0,0,0,0,0,0,0,0,0,0,0,0,0,0,0],"id":5,"left_children":[1,3,5,7,9,11,13,15,17,19,21,23,-1,25,27,29,31,33,35,37,39,41,43,45,47,49,51,53,55,57,59,61,63,65,67,69,71,73,75,77,79,81,83,85,87,89,-1,91,93,95,97,99,101,103,105,107,109,-1,-1,-1,-1,-1,-1,-1,-1,-1,-1,-1,-1,-1,-1,-1,-1,-1,-1,-1,-1,-1,-1,-1,-1,-1,-1,-1,-1,-1,-1,-1,-1,-1,-1,-1,-1,-1,-1,-1,-1,-1,-1,-1,-1,-1,-1,-1,-1,-1,-1,-1,-1,-1,-1],"loss_changes":[1.3481494E2,2.256878E0,3.5159504E3,3.6544724E0,6.5171566E0,5.6202637E1,3.214138E0,3.550354E0,4.6551476E0,6.109314E0,7.51756E0,2.3259356E0,0E0,4.3205566E0,7.755476E0,4.048212E0,4.362377E0,5.0096726E0,5.65928E0,3.1149063E0,4.6872644E0,6.662652E0,6.385482E0,1.8055599E0,4.0060816E0,4.1601963E0,5.439781E0,7.7080383E0,4.093588E0,5.5146723E0,3.9086375E0,7.1400833E0,6.5718594E0,4.226882E0,6.0921955E0,5.072023E0,4.9923754E0,5.338337E0,3.7607203E0,6.3806896E0,4.1766243E0,5.805054E0,1.0569341E1,6.032448E0,5.7408304E0,1.3625419E0,0E0,8.90748E-1,4.128056E0,5.483487E0,3.971138E0,4.987494E0,4.256368E0,5.471582E0,3.40486E0,6.815736E0,3.769434E0,0E0,0E0,0E0,0E0,0E0,0E0,0E0,0E0,0E0,0E0,0E0,0E0,0E0,0E0,0E0,0E0,0E0,0E0,0E0,0E0,0E0,0E0,0E0,0E0,0E0,0E0,0E0,0E0,0E0,0E0,0E0,0E0,0E0,0E0,0E0,0E0,0E0,0E0,0E0,0E0,0E0,0E0,0E0,0E0,0E0,0E0,0E0,0E0,0E0,0E0,0E0,0E0,0E0,0E0],"parents":[2147483647,0,0,1,1,2,2,3,3,4,4,5,5,6,6,7,7,8,8,9,9,10,10,11,11,13,13,14,14,15,15,16,16,17,17,18,18,19,19,20,20,21,21,22,22,23,23,24,24,25,25,26,26,27,27,28,28,29,29,30,30,31,31,32,32,33,33,34,34,35,35,36,36,37,37,38,38,39,39,40,40,41,41,42,42,43,43,44,44,45,45,47,47,48,48,49,49,50,50,51,51,52,52,53,53,54,54,55,55,56,56],"right_children":[2,4,6,8,10,12,14,16,18,20,22,24,-1,26,28,30,32,34,36,38,40,42,44,46,48,50,52,54,56,58,60,62,64,66,68,70,72,74,76,78,80,82,84,86,88,90,-1,92,94,96,98,100,102,104,106,108,110,-1,-1,-1,-1,-1,-1,-1,-1,-1,-1,-1,-1,-1,-1,-1,-1,-1,-1,-1,-1,-1,-1,-1,-1,-1,-1,-1,-1,-1,-1,-1,-1,-1,-1,-1,-1,-1,-1,-1,-1,-1,-1,-1,-1,-1,-1,-1,-1,-1,-1,-1,-1,-1,-1],"split_conditions":[-5.5237184E0,1E0,5.769114E0,1E0,-4.0192532E3,0E0,1E0,2.9E-1,4.0531754E0,1.3029127E0,7.389428E0,1.2E-1,-3.2436013E-1,7.570036E0,4.6E-1,1E-2,-2.7139478E2,1.93E0,-1.68E0,1.4E1,4.4E-1,1.4E-1,-1.5684779E3,1E0,2.2E-1,1E-2,1E0,4.5E-1,8.23015E1,1E0,1.54E0,-3.1258975E2,2.42E0,-1.9460818E3,1.2E-1,2.5E-1,4.2096057E0,1E0,-4.233633E3,-4.233633E3,7.415693E0,7E-2,1.34E0,-8E-1,1.8E1,4.9735565E0,7.8420386E-2,2.8690345E0,3.2E-1,2.0162354E0,4.0130547E3,2.07E0,7.9E-1,1E0,2.5595503E0,4.9E-1,1.9E1,7.6160826E-2,-7.527913E-2,6.5456224E-3,-1.9518148E-2,1.23409545E-2,-4.687216E-2,2.7589753E-2,2.6270592E-1,-1.3027233E-3,-3.2795917E-2,3.6724606E-1,4.2417124E-2,-3.372224E-2,1.04183085E-1,7.091706E-2,3.5015133E-3,2.6894352E-1,-2.4101676E-2,8.8471204E-2,-2.9461873E-1,1.0145633E-2,9.751298E-2,5.9030224E-2,-1.0847569E-1,1.5039569E-2,8.8673264E-2,-2.0007512E-2,4.300836E-2,2.4503411E-1,-2.9161489E-2,2.1109983E-1,-1.0237758E-1,-3.39232E-1,1.7036939E-2,2.2035481E-2,3.395658E-1,-2.9085064E-1,1.8848028E-2,1.8141806E-1,-5.4929174E-2,1.153782E-2,3.9201067E-3,-8.210602E-3,-3.704787E-1,-2.1372207E-1,6.206773E-2,1.4814138E-2,-4.8799887E-3,1.3903749E-1,-1.5287682E-1,-3.4146667E-1,1.2843126E-1,2.8911203E-2,-4.9188677E-3],"split_indices":[1,25,1,16,1,1,30,4,0,0,0,4,0,0,2,4,1,2,2,3,2,2,1,28,4,4,13,2,1,14,2,1,2,1,4,4,0,35,1,1,0,2,2,2,3,0,0,0,4,0,1,2,4,35,0,2,3,0,0,0,0,0,0,0,0,0,0,0,0,0,0,0,0,0,0,0,0,0,0,0,0,0,0,0,0,0,0,0,0,0,0,0,0,0,0,0,0,0,0,0,0,0,0,0,0,0,0,0,0,0,0],"split_type":[0,0,0,0,0,0,0,0,0,0,0,0,0,0,0,0,0,0,0,0,0,0,0,0,0,0,0,0,0,0,0,0,0,0,0,0,0,0,0,0,0,0,0,0,0,0,0,0,0,0,0,0,0,0,0,0,0,0,0,0,0,0,0,0,0,0,0,0,0,0,0,0,0,0,0,0,0,0,0,0,0,0,0,0,0,0,0,0,0,0,0,0,0,0,0,0,0,0,0,0,0,0,0,0,0,0,0,0,0,0,0],"sum_hessian":[8.362835E4,4.0253645E4,4.337471E4,3.5269094E4,4.9845483E3,3.1407314E3,4.023398E4,3.0863559E4,4.4055356E3,1.4718959E3,3.5126526E3,5.0673355E1,3.090058E3,3.0113963E4,1.0120018E4,8.830911E3,2.2032648E4,1.6504419E3,2.7550935E3,4.4505787E1,1.42739E3,3.4174902E3,9.516246E1,5.652684E0,4.5020668E1,2.9892252E4,2.2171104E2,6.82726E3,3.2927578E3,1.6192305E2,8.668988E3,2.0699336E4,1.333313E3,1.6110281E3,3.941389E1,1.2803102E2,2.6270625E3,2.9059082E1,1.5446707E1,9.554434E2,4.719466E2,1.8996233E3,1.5178668E3,4.9745174E1,4.541729E1,4.1883216E0,1.4643626E0,4.073833E0,4.094684E1,1.504565E2,2.9741795E4,1.9387837E2,2.7832676E1,6.789796E3,3.7463947E1,5.6487568E1,3.2362703E3,1.3709114E2,2.483192E1,8.1168267E3,5.521612E2,2.0515365E4,1.839703E2,1.3235103E3,9.802694E0,9.829323E2,6.2809576E2,5.2075005E0,3.420639E1,3.127123E1,9.6759796E1,1.0189762E2,2.5251648E3,2.1856688E1,7.202394E0,1.3703268E1,1.7434385E0,8.740844E2,8.135902E1,4.5903677E2,1.2909822E1,1.7987383E3,1.0088504E2,1.2208826E3,2.9698428E2,7.6817627E0,4.206341E1,3.9993652E1,5.423637E0,3.03959E0,1.1487317E0,1.1832352E0,2.8905978E0,3.3070989E0,3.7639736E1,8.449801E0,1.420067E2,2.1030264E4,8.711531E3,1.9139447E2,2.4839134E0,2.1866037E1,5.966638E0,5.0999604E3,1.6898354E3,3.2268922E0,3.4237057E1,1.9802685E0,5.45073E1,2.9064927E3,3.2977765E2],"tree_param":{"num_deleted":"0","num_feature":"40","num_nodes":"111","size_leaf_vector":"1"}},{"base_weights":[-6.0699526E-3,2.4674654E-2,-3.50812E-2,2.5607629E-2,-3.628526E-2,-1.0178158E0,2.4050605E-2,2.1347323E-2,3.8403556E-2,-3.716658E-1,-2.2285196E-3,-1.735176E-2,-3.1167868E-1,2.0310914E-2,4.506526E-2,1.9025708E-2,7.496907E-2,5.2021634E-2,-2.253936E-3,-6.25829E-1,1.6477656E-1,-2.1431752E-1,5.2180793E-2,-1.22964226E-1,3.3528075E-1,2.6486663E-2,-8.25457E-3,5.7371184E-2,-3.9064046E-2,2.2716248E-2,-1.2207429E-2,1.6906475E-1,-2.9474085E-2,5.5337902E-2,-1.2593752E-1,-7.9808556E-2,2.557818E-2,-9.0892184E-1,-2.6142865E-1,-1.0273603E-1,7.962488E-1,-1.6990964E-1,-4.681013E-1,3.5360366E-1,-1.1785816E-2,-6.999682E-3,-8.3787006E-1,-8.388671E-2,3.1773105E-1,4.8718262E-2,1.9470735E-2,-4.5427553E-2,3.8836606E-2,6.932872E-2,-8.5996345E-2,-6.426145E-5,-2.5161546E-1,5.10987E-3,1.3637654E-2,-9.791631E-4,-5.2684184E-2,2.7100073E-2,1.3039297E-1,-1.4623918E-1,-2.1865198E-3,1.913852E-2,-1.4066184E-3,-5.7772506E-2,2.0918466E-1,-1.477595E-2,-1.2433253E-1,1.32371895E-2,-2.9638724E-2,-3.1468046E-1,1.2462414E-1,2.2063921E-1,-1.4010133E-1,1.1240309E-1,-3.4041542E-1,3.9930275E-1,-4.171965E-2,-2.232731E-1,-3.125875E-2,1.3862017E-1,-1.03738114E-1,8.049308E-3,-9.0568036E-2,-7.9908475E-2,1.0528253E-1,4.1203827E-2,-3.3115E-1,9.556842E-2,-3.344789E-1,5.7783355E-3,2.9876476E-2,5.6853157E-4,1.0018882E-2,-1.8639173E-2,2.2106804E-2,1.6837973E-2,-2.5496516E-2,2.48483E-2,1.1605994E-3,4.2637646E-2,-4.132068E-2,-9.916079E-3,7.797829E-2,-1.0680833E-1,3.5191756E-2],"categories":[],"categories_nodes":[],"categories_segments":[],"categories_sizes":[],"default_left":[0,0,0,0,0,0,0,0,0,0,0,0,0,0,0,0,0,0,0,0,0,0,0,0,0,0,0,0,0,0,0,0,0,0,0,0,0,0,0,0,0,0,0,0,0,0,0,0,0,0,0,0,0,0,0,0,0,0,0,0,0,0,0,0,0,0,0,0,0,0,0,0,0,0,0,0,0,0,0,0,0,0,0,0,0,0,0,0,0,0,0,0,0,0,0,0,0,0,0,0,0,0,0,0,0,0,0,0,0],"id":6,"left_children":[1,3,5,7,9,11,13,15,17,19,21,23,-1,25,27,29,31,33,35,37,39,41,43,45,47,49,51,53,55,57,59,61,63,65,67,69,71,73,75,77,79,81,-1,83,85,87,89,91,-1,93,95,97,99,101,103,105,107,-1,-1,-1,-1,-1,-1,-1,-1,-1,-1,-1,-1,-1,-1,-1,-1,-1,-1,-1,-1,-1,-1,-1,-1,-1,-1,-1,-1,-1,-1,-1,-1,-1,-1,-1,-1,-1,-1,-1,-1,-1,-1,-1,-1,-1,-1,-1,-1,-1,-1,-1,-1],"loss_changes":[7.387681E1,2.2879734E0,2.4764075E3,2.1583252E0,6.9274664E0,5.10708E1,3.1581116E0,3.6979046E0,5.476946E0,7.7263103E0,6.377183E0,1.9407244E0,0E0,6.0205507E0,6.288351E0,3.2835732E0,1.2121103E1,4.379982E0,5.361313E0,3.6974401E0,3.2518752E0,6.478919E0,8.484703E0,3.3086596E0,3.7367263E0,4.3757343E0,1.0622513E1,9.087467E0,6.4277277E0,3.291912E0,4.3993764E0,1.3524725E1,5.942096E0,3.6935043E0,7.5873127E0,6.6866074E0,4.2206254E0,4.3415203E0,4.0490317E0,7.355928E0,3.0353098E0,4.0870404E0,0E0,6.0033836E0,4.0838413E0,3.380698E0,1.5967317E0,3.8990085E0,0E0,1.0083518E1,5.220622E0,6.751601E0,5.736197E0,4.320833E0,4.838251E0,5.636743E0,4.672528E0,0E0,0E0,0E0,0E0,0E0,0E0,0E0,0E0,0E0,0E0,0E0,0E0,0E0,0E0,0E0,0E0,0E0,0E0,0E0,0E0,0E0,0E0,0E0,0E0,0E0,0E0,0E0,0E0,0E0,0E0,0E0,0E0,0E0,0E0,0E0,0E0,0E0,0E0,0E0,0E0,0E0,0E0,0E0,0E0,0E0,0E0,0E0,0E0,0E0,0E0,0E0,0E0],"parents":[2147483647,0,0,1,1,2,2,3,3,4,4,5,5,6,6,7,7,8,8,9,9,10,10,11,11,13,13,14,14,15,15,16,16,17,17,18,18,19,19,20,20,21,21,22,22,23,23,24,24,25,25,26,26,27,27,28,28,29,29,30,30,31,31,32,32,33,33,34,34,35,35,36,36,37,37,38,38,39,39,40,40,41,41,43,43,44,44,45,45,46,46,47,47,49,49,50,50,51,51,52,52,53,53,54,54,55,55,56,56],"right_children":[2,4,6,8,10,12,14,16,18,20,22,24,-1,26,28,30,32,34,36,38,40,42,44,46,48,50,52,54,56,58,60,62,64,66,68,70,72,74,76,78,80,82,-1,84,86,88,90,92,-1,94,96,98,100,102,104,106,108,-1,-1,-1,-1,-1,-1,-1,-1,-1,-1,-1,-1,-1,-1,-1,-1,-1,-1,-1,-1,-1,-1,-1,-1,-1,-1,-1,-1,-1,-1,-1,-1,-1,-1,-1,-1,-1,-1,-1,-1,-1,-1,-1,-1,-1,-1,-1,-1,-1,-1,-1,-1],"split_conditions":[-5.5237184E0,9.9E-1,5.769114E0,1E0,3E0,0E0,1.8E1,9.5E-1,1E0,-1.5684779E3,3.0671222E0,1E0,-3.1167868E-1,1.5E1,1E0,8.5E-1,9E-2,2.07E0,-6.2E-1,1.6E-1,1E0,3.0464253E0,6E0,1E0,1.6E1,3.2580965E0,1.5E-1,9.3E-1,5.2968813E3,1.7E1,1.61E0,-1.0861342E3,2.0162354E0,1E0,-3.5130627E2,-6.9E-1,1E0,6.991131E0,-5.5229297E3,1E0,1E0,5E0,-4.681013E-1,1E0,1E0,0E0,2.8690345E0,1E0,3.1773105E-1,2.8075938E0,5.405017E0,1E0,1E0,9.8E-1,3.0464253E0,4.372843E3,6.2416587E0,5.10987E-3,1.3637654E-2,-9.791631E-4,-5.2684184E-2,2.7100073E-2,1.3039297E-1,-1.4623918E-1,-2.1865198E-3,1.913852E-2,-1.4066184E-3,-5.7772506E-2,2.0918466E-1,-1.477595E-2,-1.2433253E-1,1.32371895E-2,-2.9638724E-2,-3.1468046E-1,1.2462414E-1,2.2063921E-1,-1.4010133E-1,1.1240309E-1,-3.4041542E-1,3.9930275E-1,-4.171965E-2,-2.232731E-1,-3.125875E-2,1.3862017E-1,-1.03738114E-1,8.049308E-3,-9.0568036E-2,-7.9908475E-2,1.0528253E-1,4.1203827E-2,-3.3115E-1,9.556842E-2,-3.344789E-1,5.7783355E-3,2.9876476E-2,5.6853157E-4,1.0018882E-2,-1.8639173E-2,2.2106804E-2,1.6837973E-2,-2.5496516E-2,2.48483E-2,1.1605994E-3,4.2637646E-2,-4.132068E-2,-9.916079E-3,7.797829E-2,-1.0680833E-1,3.5191756E-2],"split_indices":[1,4,1,31,3,1,3,4,10,1,0,7,0,3,13,4,2,2,2,2,33,0,3,21,3,0,2,4,1,3,2,1,0,13,1,2,27,0,1,37,4,3,0,19,26,2,0,37,0,0,0,27,24,2,0,1,0,0,0,0,0,0,0,0,0,0,0,0,0,0,0,0,0,0,0,0,0,0,0,0,0,0,0,0,0,0,0,0,0,0,0,0,0,0,0,0,0,0,0,0,0,0,0,0,0,0,0,0,0],"split_type":[0,0,0,0,0,0,0,0,0,0,0,0,0,0,0,0,0,0,0,0,0,0,0,0,0,0,0,0,0,0,0,0,0,0,0,0,0,0,0,0,0,0,0,0,0,0,0,0,0,0,0,0,0,0,0,0,0,0,0,0,0,0,0,0,0,0,0,0,0,0,0,0,0,0,0,0,0,0,0,0,0,0,0,0,0,0,0,0,0,0,0,0,0,0,0,0,0,0,0,0,0,0,0,0,0,0,0,0,0],"sum_hessian":[8.28252E4,4.0211402E4,4.2613797E4,3.9605824E4,6.0557623E2,2.4176536E3,4.0196145E4,2.9715086E4,9.890739E3,5.4911465E1,5.506648E2,5.0003624E1,2.36765E3,3.41253E4,6.0708438E3,2.8483225E4,1.2318604E3,7.4088813E3,2.4818577E3,3.714551E1,1.7765951E1,1.1182579E2,4.38839E2,3.89804E1,1.1023226E1,2.8059104E4,6.066198E3,5.296432E3,7.744116E2,2.547352E4,3.0097058E3,6.477058E2,5.8415454E2,7.2740195E3,1.3486221E2,6.549531E2,1.8269045E3,2.006402E1,1.7081493E1,1.3067452E1,4.698499E0,1.0934453E2,2.4812622E0,7.603231E1,3.6280667E2,3.440876E1,4.571638E0,7.5405703E0,3.482656E0,6.729423E3,2.132968E4,3.3901252E3,2.6760728E3,4.8891685E3,4.0726355E2,6.551943E2,1.1921736E2,2.0381863E4,5.0916562E3,2.854494E3,1.5521196E2,5.006326E2,1.4707324E2,2.6020882E1,5.5813367E2,6.3756846E3,8.983349E2,1.2547168E2,9.390534E0,6.012043E2,5.3748837E1,1.5904001E3,2.3650429E2,1.833368E1,1.7303411E0,2.47961E0,1.4601883E1,9.369768E0,3.6976845E0,2.7201874E0,1.9783119E0,1.0166298E1,9.917823E1,6.611797E1,9.914336E0,3.2098694E2,4.181974E1,2.0100168E1,1.4308593E1,1.0832478E0,3.4883902E0,5.920604E0,1.6199657E0,4.262517E3,2.4669055E3,9.429591E3,1.190009E4,2.9736301E3,4.164952E2,2.3486694E3,3.274034E2,4.0530896E3,8.360787E2,7.496979E1,3.3229376E2,5.8219476E2,7.2999504E1,9.294653E1,2.6270828E1],"tree_param":{"num_deleted":"0","num_feature":"40","num_nodes":"109","size_leaf_vector":"1"}},{"base_weights":[-5.3831195E-3,1.728509E-2,-2.7056348E-2,1.9952055E-2,-9.4207923E-4,-9.76709E-1,1.686064E-2,5.0647132E-2,1.7834892E-2,-4.1018208E-3,2.5224212E-1,-1.5578717E-2,-3.008667E-1,1.9404108E-2,-1.1617576E-2,4.51864E-2,5.7539296E-1,-7.879141E-3,2.1286448E-2,3.6097227E-3,-1.409268E-1,-3.7268463E-1,3.679712E-1,-2.6049703E-1,2.0656038E-2,1.3286452E-2,3.1213779E-2,-2.9917113E-2,7.087622E-2,4.8783142E-2,-5.818961E-1,6.7437893E-1,-1.5643097E-1,-1.2591693E-1,6.250285E-3,1.753618E-2,4.7475968E-2,8.076667E-3,-1.7630681E-1,-3.0910578E-1,3.2181226E-2,-3.7418792E-1,1.7700098E-2,-3.2250068E-1,4.7630036E-1,-8.2918845E-2,3.9265403E-1,1.4616309E-4,2.6470175E-2,4.8585687E-2,1.0760474E-2,-2.202242E-2,-2.407217E-1,1.1747252E-1,-2.853006E-1,1.0506308E-2,4.5718588E-2,-2.5060627E-1,1.6160545E-1,2.633464E-1,-4.3228325E-3,-6.0938213E-2,1.1475934E-2,-7.2915085E-2,3.928635E-3,9.128664E-3,2.1055695E-3,6.2105928E-2,1.1852539E-2,1.0624428E-3,6.1713465E-2,-1.8025815E-3,-1.5854023E-1,-1.8780635E-1,-5.706155E-2,2.5155088E-1,-9.10372E-3,1.2429676E-1,-3.6529607E-1,-2.7125615E-1,6.302268E-2,1.9939527E-2,1.847577E-1,6.9155754E-3,-1.8909578E-1,1.9951698E-1,-1.6707027E-1,-3.2849703E-3,9.991806E-3,1.1354231E-2,-8.006234E-3,-2.543732E-2,1.6635133E-2,1.8447015E-3,7.053472E-2,-1.0276033E-2,5.6494515E-2,-5.3261857E-2,-2.0703875E-1,2.1038655E-2,1.2152303E-1,1.4710073E-1,-1.3030033E-1],"categories":[],"categories_nodes":[],"categories_segments":[],"categories_sizes":[],"default_left":[0,0,0,0,0,0,0,0,0,0,0,0,0,0,0,0,0,0,0,0,0,0,0,0,0,0,0,0,0,0,0,0,0,0,0,0,0,0,0,0,0,0,0,0,0,0,0,0,0,0,0,0,0,0,0,0,0,0,0,0,0,0,0,0,0,0,0,0,0,0,0,0,0,0,0,0,0,0,0,0,0,0,0,0,0,0,0,0,0,0,0,0,0,0,0,0,0,0,0,0,0,0,0],"id":7,"left_children":[1,3,5,7,9,11,13,15,17,19,21,23,-1,25,27,29,31,33,35,37,39,41,43,-1,45,47,49,51,53,55,57,59,-1,61,63,65,67,69,71,73,75,-1,77,79,81,83,85,87,89,91,93,95,97,99,101,-1,-1,-1,-1,-1,-1,-1,-1,-1,-1,-1,-1,-1,-1,-1,-1,-1,-1,-1,-1,-1,-1,-1,-1,-1,-1,-1,-1,-1,-1,-1,-1,-1,-1,-1,-1,-1,-1,-1,-1,-1,-1,-1,-1,-1,-1,-1,-1],"loss_changes":[4.0386784E1,1.9532356E0,1.7526948E3,2.2769842E0,4.1047373E0,4.6724976E1,2.9097433E0,6.4532275E0,2.9105349E0,5.3472877E0,4.7111545E0,1.5712799E0,0E0,2.663723E0,4.974758E0,5.0781593E0,2.8707705E0,6.47421E0,2.8387575E0,3.8574793E0,7.881824E0,3.565813E0,4.1826873E0,0E0,1.9281923E0,4.2085233E0,4.470314E0,4.482602E0,9.963906E0,3.1702924E0,4.0984635E0,3.0559673E0,0E0,5.268048E0,5.9203267E0,3.4293056E0,4.594511E0,4.196461E0,6.9705467E0,5.0523853E0,6.7887535E0,0E0,4.503615E0,2.6377068E0,2.6452627E0,2.294835E0,3.1870532E0,4.4774013E0,7.3350496E0,6.23411E0,5.9787583E0,6.696419E0,2.638698E0,7.1858654E0,8.2484E0,0E0,0E0,0E0,0E0,0E0,0E0,0E0,0E0,0E0,0E0,0E0,0E0,0E0,0E0,0E0,0E0,0E0,0E0,0E0,0E0,0E0,0E0,0E0,0E0,0E0,0E0,0E0,0E0,0E0,0E0,0E0,0E0,0E0,0E0,0E0,0E0,0E0,0E0,0E0,0E0,0E0,0E0,0E0,0E0,0E0,0E0,0E0,0E0],"parents":[2147483647,0,0,1,1,2,2,3,3,4,4,5,5,6,6,7,7,8,8,9,9,10,10,11,11,13,13,14,14,15,15,16,16,17,17,18,18,19,19,20,20,21,21,22,22,24,24,25,25,26,26,27,27,28,28,29,29,30,30,31,31,33,33,34,34,35,35,36,36,37,37,38,38,39,39,40,40,42,42,43,43,44,44,45,45,46,46,47,47,48,48,49,49,50,50,51,51,52,52,53,53,54,54],"right_children":[2,4,6,8,10,12,14,16,18,20,22,24,-1,26,28,30,32,34,36,38,40,42,44,-1,46,48,50,52,54,56,58,60,-1,62,64,66,68,70,72,74,76,-1,78,80,82,84,86,88,90,92,94,96,98,100,102,-1,-1,-1,-1,-1,-1,-1,-1,-1,-1,-1,-1,-1,-1,-1,-1,-1,-1,-1,-1,-1,-1,-1,-1,-1,-1,-1,-1,-1,-1,-1,-1,-1,-1,-1,-1,-1,-1,-1,-1,-1,-1,-1,-1,-1,-1,-1,-1],"split_conditions":[-5.5237184E0,1E0,5.769114E0,7E-2,2.27E0,0E0,1.4E0,7.570036E0,1.8E-1,1.54E0,1.9E-1,3E-2,-3.008667E-1,2.7E-1,5.025781E3,7.4782376E0,-3.5130627E2,-1.25E0,1E0,9.8E-1,-2.4556206E3,7E0,-5.730936E3,-2.6049703E-1,1E0,2.5703267E3,2.8420242E3,7.34092E0,1E0,-5.4912225E2,1E0,1E0,-1.5643097E-1,-1.6592002E3,-7.3485596E3,1E1,2E0,7.415693E0,3.9E-1,3.621938E0,2.2905126E0,-3.7418792E-1,-1.1280789E3,3.9E-1,3.0864866E0,1E0,1E0,1E0,8.3E-1,2E0,7.444991E0,7.080439E0,4.2267993E3,1E0,5.395571E3,1.0506308E-2,4.5718588E-2,-2.5060627E-1,1.6160545E-1,2.633464E-1,-4.3228325E-3,-6.0938213E-2,1.1475934E-2,-7.2915085E-2,3.928635E-3,9.128664E-3,2.1055695E-3,6.2105928E-2,1.1852539E-2,1.0624428E-3,6.1713465E-2,-1.8025815E-3,-1.5854023E-1,-1.8780635E-1,-5.706155E-2,2.5155088E-1,-9.10372E-3,1.2429676E-1,-3.6529607E-1,-2.7125615E-1,6.302268E-2,1.9939527E-2,1.847577E-1,6.9155754E-3,-1.8909578E-1,1.9951698E-1,-1.6707027E-1,-3.2849703E-3,9.991806E-3,1.1354231E-2,-8.006234E-3,-2.543732E-2,1.6635133E-2,1.8447015E-3,7.053472E-2,-1.0276033E-2,5.6494515E-2,-5.3261857E-2,-2.0703875E-1,2.1038655E-2,1.2152303E-1,1.4710073E-1,-1.3030033E-1],"split_indices":[1,26,1,4,2,1,2,0,4,2,4,4,0,2,1,0,1,2,13,4,1,3,1,0,7,1,1,0,24,1,31,38,0,1,1,3,3,0,2,0,0,0,1,4,0,25,37,33,4,3,0,0,1,26,1,0,0,0,0,0,0,0,0,0,0,0,0,0,0,0,0,0,0,0,0,0,0,0,0,0,0,0,0,0,0,0,0,0,0,0,0,0,0,0,0,0,0,0,0,0,0,0,0],"split_type":[0,0,0,0,0,0,0,0,0,0,0,0,0,0,0,0,0,0,0,0,0,0,0,0,0,0,0,0,0,0,0,0,0,0,0,0,0,0,0,0,0,0,0,0,0,0,0,0,0,0,0,0,0,0,0,0,0,0,0,0,0,0,0,0,0,0,0,0,0,0,0,0,0,0,0,0,0,0,0,0,0,0,0,0,0,0,0,0,0,0,0,0,0,0,0,0,0,0,0,0,0,0,0],"sum_hessian":[8.2203086E4,4.0179363E4,4.2023727E4,3.5050715E4,5.1286494E3,1.856561E3,4.0167164E4,2.260118E3,3.2790594E4,5.0664043E3,6.2244984E1,4.927166E1,1.8072893E3,3.6874152E4,3.2930137E3,2.2379155E3,2.220261E1,3.8804E3,2.8910195E4,4.797015E3,2.6938925E2,9.378985E0,5.2865997E1,1.072306E0,4.8199356E1,2.4292338E4,1.2581813E4,2.695672E3,5.973416E2,2.2260696E3,1.1845811E1,2.071802E1,1.4845904E0,4.13991E2,3.466409E3,2.5290355E4,3.6198406E3,4.6817324E3,1.1528234E2,1.3624147E2,1.331478E2,2.2170117E0,7.161974E0,6.901288E0,4.596471E1,3.8309887E1,9.889469E0,1.2166717E4,1.2125622E4,6.802646E3,5.7791675E3,2.5994272E3,9.624484E1,5.288286E2,6.851303E1,1.9662444E3,2.5982523E2,9.868291E0,1.97752E0,1.5782126E1,4.9358935E0,2.814062E2,1.3258481E2,9.171315E1,3.3746958E3,1.1361417E4,1.3928938E4,1.7098582E2,3.4488547E3,4.5777046E3,1.0402815E2,7.8391E1,3.6891342E1,3.600619E1,1.0023527E2,8.688913E0,1.2445888E2,5.924475E0,1.2374989E0,2.965056E0,3.9362319E0,1.205109E1,3.391362E1,3.2898903E1,5.410981E0,7.9177E0,1.9717696E0,9.116719E3,3.0499976E3,9.988156E3,2.1374653E3,3.3243066E2,6.4702153E3,5.66378E3,1.1538774E2,2.4573696E3,1.420577E2,8.560472E1,1.0640118E1,4.5514862E2,7.367999E1,1.0673487E1,5.7839542E1],"tree_param":{"num_deleted":"0","num_feature":"40","num_nodes":"103","size_leaf_vector":"1"}},{"base_weights":[-4.6159574E-3,1.2455977E-2,-2.0561324E-2,-7.285032E-4,1.5756423E-2,-6.3545436E-1,1.1819024E-2,3.808166E-2,-2.7001673E-2,-4.6314493E-2,1.7429722E-2,-8.959935E-3,-2.9069996E-1,-2.6461086E-3,1.5405708E-2,1.2972998E-2,9.365683E-2,-5.060675E-3,-9.201134E-2,6.311424E-3,-2.00209E-1,3.2227423E-2,1.0690832E-2,-4.2766828E-2,2.0891494E-1,-1.9292835E-2,4.002645E-2,1.7560696E-2,-2.8984858E-2,-3.0841765E-3,1.2445691E-1,1.9648431E-1,2.087515E-2,1.1149003E-2,-1.1970284E-1,-7.90045E-2,-5.8280474E-1,-3.3114654E-1,3.030123E-2,-8.2196094E-2,-4.1188824E-1,1.8845238E-2,7.308168E-2,2.1225473E-2,-4.2187176E-3,2.6758373E-1,-6.4561345E-2,-9.384941E-2,4.412448E-1,-3.2886125E-2,7.455853E-2,-6.756015E-2,6.404835E-2,4.9310766E-2,1.3044792E-2,-3.9391853E-3,-1.9447643E-1,-6.8132624E-2,2.200352E-3,4.6654563E-2,-1.1716268E-1,-8.185181E-3,7.502257E-2,-3.500914E-2,3.2565236E-2,1.142023E-3,7.893298E-2,-4.388496E-2,1.02467254E-1,-4.8956126E-3,-4.5218956E-2,2.1081083E-2,-2.2773136E-1,-1.356956E-1,1.2731075E-1,1.1251234E-2,-3.2795328E-1,-4.7567222E-2,3.4081864E-1,-2.0994091E-1,-1.3237168E-3,9.785418E-3,-6.8626306E-3,2.059775E-2,2.0195043E-1,5.7176324E-3,4.522696E-2,2.5806683E-3,-1.7120404E-2,-1.5585296E-1,1.0920287E-1,-2.890418E-1,-1.3807452E-2,-9.092705E-2,1.2163491E-1,-1.5581118E-2,1.7671701E-1,-8.70494E-3,-1.1689171E-1,-1.6628053E-3,6.489166E-2,-4.1455336E-2,3.99215E-2,8.311871E-3,4.2923257E-2,1.0934714E-2,4.1439738E-2,5.4205516E-3,-6.5779034E-3,2.7086914E-3,-7.541382E-2,-1.4274752E-1,5.681187E-3],"categories":[],"categories_nodes":[],"categories_segments":[],"categories_sizes":[],"default_left":[0,0,0,0,0,0,0,0,0,0,0,0,0,0,0,0,0,0,0,0,0,0,0,0,0,0,0,0,0,0,0,0,0,0,0,0,0,0,0,0,0,0,0,0,0,0,0,0,0,0,0,0,0,0,0,0,0,0,0,0,0,0,0,0,0,0,0,0,0,0,0,0,0,0,0,0,0,0,0,0,0,0,0,0,0,0,0,0,0,0,0,0,0,0,0,0,0,0,0,0,0,0,0,0,0,0,0,0,0,0,0,0,0],"id":8,"left_children":[1,3,5,7,9,11,13,15,17,19,21,23,-1,25,27,29,31,33,35,37,39,41,43,45,47,49,51,53,55,57,59,61,63,65,67,69,71,73,75,77,79,81,83,85,87,89,91,93,95,97,99,101,103,105,107,109,111,-1,-1,-1,-1,-1,-1,-1,-1,-1,-1,-1,-1,-1,-1,-1,-1,-1,-1,-1,-1,-1,-1,-1,-1,-1,-1,-1,-1,-1,-1,-1,-1,-1,-1,-1,-1,-1,-1,-1,-1,-1,-1,-1,-1,-1,-1,-1,-1,-1,-1,-1,-1,-1,-1,-1,-1],"loss_changes":[2.2248625E1,1.7175899E0,8.414162E2,8.059951E0,3.2796388E0,4.4176086E2,2.0829186E0,4.451475E0,6.7228413E0,6.714875E0,3.0651293E0,5.426424E0,0E0,5.667659E0,3.0779357E0,3.9370003E0,7.426367E0,6.5522623E0,7.546399E0,5.018688E0,5.2437954E0,5.257201E0,3.3178673E0,4.329552E0,7.0027905E0,7.324558E0,5.790995E0,4.398445E0,6.1742396E0,4.490491E0,4.4895015E0,4.939968E0,7.0384026E0,5.7143126E0,5.4050984E0,5.2122035E0,3.570693E0,3.9588823E0,4.7227516E0,1.2915072E1,8.839626E0,4.164694E0,6.25115E0,3.471027E0,5.926943E0,3.3788757E0,9.895124E0,4.6982217E0,4.125411E0,6.9106236E0,8.249161E0,5.8161087E0,5.2544723E0,4.3590765E0,4.7196684E0,4.157698E0,1.1766184E1,0E0,0E0,0E0,0E0,0E0,0E0,0E0,0E0,0E0,0E0,0E0,0E0,0E0,0E0,0E0,0E0,0E0,0E0,0E0,0E0,0E0,0E0,0E0,0E0,0E0,0E0,0E0,0E0,0E0,0E0,0E0,0E0,0E0,0E0,0E0,0E0,0E0,0E0,0E0,0E0,0E0,0E0,0E0,0E0,0E0,0E0,0E0,0E0,0E0,0E0,0E0,0E0,0E0,0E0,0E0,0E0],"parents":[2147483647,0,0,1,1,2,2,3,3,4,4,5,5,6,6,7,7,8,8,9,9,10,10,11,11,13,13,14,14,15,15,16,16,17,17,18,18,19,19,20,20,21,21,22,22,23,23,24,24,25,25,26,26,27,27,28,28,29,29,30,30,31,31,32,32,33,33,34,34,35,35,36,36,37,37,38,38,39,39,40,40,41,41,42,42,43,43,44,44,45,45,46,46,47,47,48,48,49,49,50,50,51,51,52,52,53,53,54,54,55,55,56,56],"right_children":[2,4,6,8,10,12,14,16,18,20,22,24,-1,26,28,30,32,34,36,38,40,42,44,46,48,50,52,54,56,58,60,62,64,66,68,70,72,74,76,78,80,82,84,86,88,90,92,94,96,98,100,102,104,106,108,110,112,-1,-1,-1,-1,-1,-1,-1,-1,-1,-1,-1,-1,-1,-1,-1,-1,-1,-1,-1,-1,-1,-1,-1,-1,-1,-1,-1,-1,-1,-1,-1,-1,-1,-1,-1,-1,-1,-1,-1,-1,-1,-1,-1,-1,-1,-1,-1,-1,-1,-1,-1,-1,-1,-1,-1,-1],"split_conditions":[-8.135285E1,5E0,5.769114E0,4.237579E0,-7.3485596E3,0E0,5E0,1E0,1E0,1E0,1E1,1.13E0,-2.9069996E-1,6.0715227E0,7.278001E0,1E0,-3.1805579E3,1E0,-1.9503441E2,2.171337E0,5.7744584E0,1E0,-2.0455511E3,2.2905126E0,-4.308022E1,1E0,8.3425446E2,7E0,1E0,5E-2,9.5E-1,2.390596E0,-1.8011028E3,-1.9503441E2,9.5E-1,5.3E-1,5.025852E0,1E0,1E0,5.551641E0,1.2E-1,1E0,2.42E0,-2.094463E3,8.1E-1,-1.51E0,2.451005E0,7.5E-1,3.1813817E0,6.039111E0,1E0,1E0,6.8E-1,1E0,1E0,9.6E-1,-1.4E-1,-6.8132624E-2,2.200352E-3,4.6654563E-2,-1.1716268E-1,-8.185181E-3,7.502257E-2,-3.500914E-2,3.2565236E-2,1.142023E-3,7.893298E-2,-4.388496E-2,1.02467254E-1,-4.8956126E-3,-4.5218956E-2,2.1081083E-2,-2.2773136E-1,-1.356956E-1,1.2731075E-1,1.1251234E-2,-3.2795328E-1,-4.7567222E-2,3.4081864E-1,-2.0994091E-1,-1.3237168E-3,9.785418E-3,-6.8626306E-3,2.059775E-2,2.0195043E-1,5.7176324E-3,4.522696E-2,2.5806683E-3,-1.7120404E-2,-1.5585296E-1,1.0920287E-1,-2.890418E-1,-1.3807452E-2,-9.092705E-2,1.2163491E-1,-1.5581118E-2,1.7671701E-1,-8.70494E-3,-1.1689171E-1,-1.6628053E-3,6.489166E-2,-4.1455336E-2,3.99215E-2,8.311871E-3,4.2923257E-2,1.0934714E-2,4.1439738E-2,5.4205516E-3,-6.5779034E-3,2.7086914E-3,-7.541382E-2,-1.4274752E-1,5.681187E-3],"split_indices":[1,3,1,0,1,1,3,8,37,32,3,2,0,0,0,18,1,17,1,0,0,37,1,0,1,21,1,3,17,4,4,0,1,1,4,4,0,26,4,0,2,32,2,1,4,2,0,4,0,0,9,33,4,28,15,4,2,0,0,0,0,0,0,0,0,0,0,0,0,0,0,0,0,0,0,0,0,0,0,0,0,0,0,0,0,0,0,0,0,0,0,0,0,0,0,0,0,0,0,0,0,0,0,0,0,0,0,0,0,0,0,0,0],"split_type":[0,0,0,0,0,0,0,0,0,0,0,0,0,0,0,0,0,0,0,0,0,0,0,0,0,0,0,0,0,0,0,0,0,0,0,0,0,0,0,0,0,0,0,0,0,0,0,0,0,0,0,0,0,0,0,0,0,0,0,0,0,0,0,0,0,0,0,0,0,0,0,0,0,0,0,0,0,0,0,0,0,0,0,0,0,0,0,0,0,0,0,0,0,0,0,0,0,0,0,0,0,0,0,0,0,0,0,0,0,0,0,0,0],"sum_hessian":[8.172889E4,3.9470234E4,4.2258652E4,7.902492E3,3.1567744E4,2.11309E3,4.0145562E4,3.1899365E3,4.7125557E3,8.279598E2,3.0739783E4,7.3450507E2,1.378585E3,7.9765034E3,3.216906E4,2.1980835E3,9.9185297E2,3.5242024E3,1.1883531E3,6.176922E2,2.1026762E2,9.617427E3,2.1122357E4,6.365392E2,9.796589E1,5.7384575E3,2.2380461E3,3.0680258E4,1.4888029E3,1.9221991E3,2.7588452E2,4.1037164E2,5.814813E2,3.0884219E3,4.357806E2,1.1588038E3,2.9549265E1,4.014732E1,5.7754486E2,1.3589394E2,7.437369E1,7.2455435E3,2.3718828E3,1.2376833E4,8.745524E3,4.102808E1,5.955111E2,4.2794113E1,5.5171772E1,5.013028E3,7.254299E2,4.0816956E2,1.8298766E3,3.8191262E3,2.686113E4,1.2939924E3,1.9481041E2,8.449846E1,1.8377007E3,2.608513E2,1.503325E1,7.9386215E1,3.309854E2,2.2620729E2,3.5527402E2,3.0019585E3,8.646337E1,4.1268243E2,2.3098175E1,6.190235E2,5.397804E2,6.4091153E0,2.314015E1,3.4944168E1,5.2031507E0,5.748261E2,2.7187274E0,1.2869698E2,7.19697E0,4.3160133E1,3.121355E1,5.44745E3,1.7980936E3,2.3556367E3,1.6246141E1,1.2174337E4,2.024962E2,7.0387905E3,1.7067341E3,3.9988732E0,3.7029205E1,1.1001995E1,5.8450916E2,3.0433393E1,1.2360721E1,1.2872071E1,4.22997E1,4.960305E3,5.2722576E1,4.6411783E2,2.6131204E2,3.0212866E2,1.060409E2,1.2543881E3,5.7548846E2,3.337285E3,4.8184128E2,2.3487555E4,3.3735771E3,1.230468E3,6.35244E1,8.35003E1,1.1131011E2],"tree_param":{"num_deleted":"0","num_feature":"40","num_nodes":"113","size_leaf_vector":"1"}},{"base_weights":[-3.8439818E-3,8.736925E-3,-1.5685055E-2,7.906431E-3,5.5800844E-2,-5.535097E-1,8.281362E-3,5.434731E-3,2.5397161E-2,1.04818024E-1,-8.8881694E-2,-6.2555303E-3,-9.3416446E-1,4.238885E-3,2.0315591E-2,-3.351154E-2,7.405817E-3,9.519085E-2,1.43534355E-2,1.4504144E-1,-1.7016035E-1,5.5324797E-2,-5.404433E-1,-3.443237E-2,1.829621E-1,-2.8343877E-1,-8.537332E-1,7.6970416E-3,-1.9920142E-2,1.8625945E-2,2.6071724E-1,-2.0310822E-1,-1.5536317E-2,6.8646885E-2,5.3811236E-3,3.490328E-2,2.9523334E-1,9.804815E-2,9.697831E-4,2.7183902E-1,4.192752E-2,-6.165951E-1,6.624409E-2,-1.2453058E-1,3.1071106E-1,-3.5240406E-1,-1.580102E0,-6.46627E-2,1.5906382E-1,-1.0161987E-1,8.002096E-1,-2.4804408E-3,-8.6625695E-1,1.3943227E-2,-6.8344893E-3,2.7423015E-1,-2.3392007E-2,1.481136E-1,1.5356169E-2,7.863674E-1,1.5667681E-1,-3.6863454E-2,-2.0381358E-1,-3.6298756E-2,6.331988E-3,1.2198272E-2,9.488172E-2,1.3277854E-3,2.4149327E-2,-9.095596E-2,2.7122874E-2,1.0552477E-1,-8.435715E-2,4.4344597E-2,-1.3019416E-2,9.268938E-3,-8.704438E-3,6.372688E-2,1.9581157E-1,-1.6801614E-1,1.879339E-2,-2.335066E-1,3.1161022E-1,1.027615E-1,-1.5456134E-1,-8.2911635E-3,-2.1339723E-1,1.7872083E-1,2.0784704E-2,-2.1039711E-1,6.484861E-2,-5.444121E-1,-1.0610301E-1,-3.411485E-2,2.3993436E-2,2.5438974E-2,3.1450152E-1,6.0979433E-2,-1.1103781E-1,2.902189E-1,-1.9257711E-2,-2.7075493E-1,-1.7618197E-1,6.156339E-5,1.01884175E-2,-3.658233E-2,-4.4754977E-4,-8.327596E-2,1.984632E-1,-4.7467727E-2,-5.6379754E-3,2.604472E-2,1.6315317E-1,4.9671168E-3,-8.83962E-2,-1.6821729E-2,3.371007E-1,-1.8557394E-1,8.340348E-2],"categories":[],"categories_nodes":[],"categories_segments":[],"categories_sizes":[],"default_left":[0,0,0,0,0,0,0,0,0,0,0,0,0,0,0,0,0,0,0,0,0,0,0,0,0,0,0,0,0,0,0,0,0,0,0,0,0,0,0,0,0,0,0,0,0,0,0,0,0,0,0,0,0,0,0,0,0,0,0,0,0,0,0,0,0,0,0,0,0,0,0,0,0,0,0,0,0,0,0,0,0,0,0,0,0,0,0,0,0,0,0,0,0,0,0,0,0,0,0,0,0,0,0,0,0,0,0,0,0,0,0,0,0,0,0,0,0,0,0],"id":9,"left_children":[1,3,5,7,9,11,13,15,17,19,21,23,25,27,29,31,33,35,37,39,41,43,45,47,49,-1,51,53,55,57,59,61,63,65,67,69,71,73,75,77,79,81,83,85,87,89,91,93,95,97,99,-1,101,103,105,107,109,111,113,115,117,-1,-1,-1,-1,-1,-1,-1,-1,-1,-1,-1,-1,-1,-1,-1,-1,-1,-1,-1,-1,-1,-1,-1,-1,-1,-1,-1,-1,-1,-1,-1,-1,-1,-1,-1,-1,-1,-1,-1,-1,-1,-1,-1,-1,-1,-1,-1,-1,-1,-1,-1,-1,-1,-1,-1,-1,-1,-1],"loss_changes":[1.2121948E1,1.541637E0,5.403146E2,1.6759689E0,4.85989E0,3.725157E2,1.9521918E0,2.6080844E0,3.6985126E0,5.680339E0,1.1335809E1,3.9228752E0,9.527588E-2,2.5099545E0,4.093866E0,4.9862237E0,4.0090375E0,7.896324E0,4.6435113E0,5.8280115E0,6.9760857E0,6.124917E0,7.6771326E0,3.7552886E0,1.683402E1,0E0,1.4064407E0,2.3854523E0,3.8483033E0,4.240657E0,3.7240944E0,5.9064627E0,5.7252173E0,7.157959E0,2.245515E0,9.502647E0,5.040573E0,4.0295234E0,3.2089195E0,4.3900995E0,3.1217036E0,6.9260664E0,7.223472E0,4.44145E0,3.7462492E0,7.482727E0,1.1317043E0,3.9428706E0,5.6436043E0,5.4915833E0,4.427677E0,0E0,8.0067444E-1,5.0547075E0,4.8587255E0,9.579685E0,2.303048E0,5.9371753E0,3.6441681E0,3.2951589E0,5.813492E0,0E0,0E0,0E0,0E0,0E0,0E0,0E0,0E0,0E0,0E0,0E0,0E0,0E0,0E0,0E0,0E0,0E0,0E0,0E0,0E0,0E0,0E0,0E0,0E0,0E0,0E0,0E0,0E0,0E0,0E0,0E0,0E0,0E0,0E0,0E0,0E0,0E0,0E0,0E0,0E0,0E0,0E0,0E0,0E0,0E0,0E0,0E0,0E0,0E0,0E0,0E0,0E0,0E0,0E0,0E0,0E0,0E0,0E0],"parents":[2147483647,0,0,1,1,2,2,3,3,4,4,5,5,6,6,7,7,8,8,9,9,10,10,11,11,12,12,13,13,14,14,15,15,16,16,17,17,18,18,19,19,20,20,21,21,22,22,23,23,24,24,26,26,27,27,28,28,29,29,30,30,31,31,32,32,33,33,34,34,35,35,36,36,37,37,38,38,39,39,40,40,41,41,42,42,43,43,44,44,45,45,46,46,47,47,48,48,49,49,50,50,52,52,53,53,54,54,55,55,56,56,57,57,58,58,59,59,60,60],"right_children":[2,4,6,8,10,12,14,16,18,20,22,24,26,28,30,32,34,36,38,40,42,44,46,48,50,-1,52,54,56,58,60,62,64,66,68,70,72,74,76,78,80,82,84,86,88,90,92,94,96,98,100,-1,102,104,106,108,110,112,114,116,118,-1,-1,-1,-1,-1,-1,-1,-1,-1,-1,-1,-1,-1,-1,-1,-1,-1,-1,-1,-1,-1,-1,-1,-1,-1,-1,-1,-1,-1,-1,-1,-1,-1,-1,-1,-1,-1,-1,-1,-1,-1,-1,-1,-1,-1,-1,-1,-1,-1,-1,-1,-1,-1,-1,-1,-1,-1,-1],"split_conditions":[-8.135285E1,-1.565899E2,5.769114E0,1E0,1E0,0E0,1E0,1.9530276E0,-5.6250903E3,1E0,1E0,1E0,1E0,1E0,7.570036E0,-6.071567E3,2.3253245E0,7.3E-1,1.4E-1,-1.2379306E2,3.9497042E0,5.9E-1,1E0,1E0,4.8E-1,-2.8343877E-1,2E-2,5.3E-1,-2.28E0,3E-2,5.8961365E2,1E0,-6.6E-1,1.25E0,7.5181947E0,1.3E-1,7.150207E0,1E0,0E0,1E0,-2E0,9.3E-1,6.7E-1,1E0,-1.4E-1,2.7E-1,1E0,7.5E-1,7.1147776E0,-4.308022E1,1E0,-2.4804408E-3,1E0,-2.1E-1,5E-2,4E-1,-1.68E0,1E0,7.5181947E0,1.16264946E2,9.603131E2,-3.6863454E-2,-2.0381358E-1,-3.6298756E-2,6.331988E-3,1.2198272E-2,9.488172E-2,1.3277854E-3,2.4149327E-2,-9.095596E-2,2.7122874E-2,1.0552477E-1,-8.435715E-2,4.4344597E-2,-1.3019416E-2,9.268938E-3,-8.704438E-3,6.372688E-2,1.9581157E-1,-1.6801614E-1,1.879339E-2,-2.335066E-1,3.1161022E-1,1.027615E-1,-1.5456134E-1,-8.2911635E-3,-2.1339723E-1,1.7872083E-1,2.0784704E-2,-2.1039711E-1,6.484861E-2,-5.444121E-1,-1.0610301E-1,-3.411485E-2,2.3993436E-2,2.5438974E-2,3.1450152E-1,6.0979433E-2,-1.1103781E-1,2.902189E-1,-1.9257711E-2,-2.7075493E-1,-1.7618197E-1,6.156339E-5,1.01884175E-2,-3.658233E-2,-4.4754977E-4,-8.327596E-2,1.984632E-1,-4.7467727E-2,-5.6379754E-3,2.604472E-2,1.6315317E-1,4.9671168E-3,-8.83962E-2,-1.6821729E-2,3.371007E-1,-1.8557394E-1,8.340348E-2],"split_indices":[1,1,1,25,33,1,30,0,1,25,7,28,21,19,0,1,0,2,4,1,0,4,17,16,2,0,4,2,2,4,1,16,2,2,0,4,0,37,2,18,2,4,4,22,2,2,36,4,0,1,17,0,19,2,4,4,2,17,0,1,1,0,0,0,0,0,0,0,0,0,0,0,0,0,0,0,0,0,0,0,0,0,0,0,0,0,0,0,0,0,0,0,0,0,0,0,0,0,0,0,0,0,0,0,0,0,0,0,0,0,0,0,0,0,0,0,0,0,0],"split_type":[0,0,0,0,0,0,0,0,0,0,0,0,0,0,0,0,0,0,0,0,0,0,0,0,0,0,0,0,0,0,0,0,0,0,0,0,0,0,0,0,0,0,0,0,0,0,0,0,0,0,0,0,0,0,0,0,0,0,0,0,0,0,0,0,0,0,0,0,0,0,0,0,0,0,0,0,0,0,0,0,0,0,0,0,0,0,0,0,0,0,0,0,0,0,0,0,0,0,0,0,0,0,0,0,0,0,0,0,0,0,0,0,0,0,0,0,0,0,0],"sum_hessian":[8.1369016E4,3.9452152E4,4.1916867E4,3.8769195E4,6.829567E2,1.7872617E3,4.0129605E4,3.3970035E4,4.7991597E3,5.1033517E2,1.7262157E2,7.336028E2,1.0536589E3,3.0040055E4,1.0089552E4,1.6356462E3,3.2334389E4,6.546035E2,4.144556E3,4.456227E2,6.471247E1,1.3150337E2,4.1118206E1,6.392313E2,9.4371414E1,9.21154E2,1.3250493E2,2.6279107E4,3.760947E3,1.0020203E4,6.934887E1,1.5575882E2,1.4798875E3,1.0337441E3,3.1300645E4,5.0391208E2,1.5069144E2,5.705147E2,3.5740415E3,1.9912524E2,2.4649747E2,2.18472E1,4.2865273E1,7.746274E1,5.404063E1,3.5954254E1,5.163952E0,5.534331E2,8.579823E1,6.516325E1,2.9208155E1,1.9583564E0,1.3054657E2,1.8379125E4,7.8999824E3,4.296301E1,3.717984E3,2.4570349E2,9.774499E3,1.0374554E1,5.897431E1,1.3437987E2,2.137894E1,3.8101434E2,1.098873E3,9.2982227E2,1.0392184E2,3.0908674E4,3.9197134E2,7.043417E1,4.334779E2,1.37591E2,1.3100429E1,4.2199332E2,1.4852138E2,1.7887325E3,1.7853088E3,1.7360081E2,2.5524426E1,7.334819E0,2.3916264E2,2.0384909E1,1.4622921E0,2.9336136E1,1.3529135E1,6.738328E1,1.0079461E1,2.410972E1,2.993091E1,2.213616E1,1.3818093E1,3.9321024E0,1.2318494E0,4.1343475E2,1.3999837E2,8.019606E1,5.602171E0,3.0628286E1,3.453497E1,2.437463E1,4.8335238E0,1.13553085E2,1.699348E1,1.0899827E4,7.4792974E3,3.494442E2,7.550538E3,1.7835535E1,2.5127472E1,1.2152458E2,3.5964592E3,2.138049E2,3.1898594E1,9.737725E3,3.6774418E1,3.2045858E0,7.169968E0,7.426338E0,5.1547974E1],"tree_param":{"num_deleted":"0","num_feature":"40","num_nodes":"119","size_leaf_vector":"1"}},{"base_weights":[-3.1315726E-3,5.969581E-3,-1.2042829E-2,2.751756E-2,4.6438607E-3,-8.462633E-1,5.81589E-3,6.1983615E-2,-7.09032E-2,1.9009613E-3,2.3959937E-2,-1.3801307E-2,-8.959414E-1,6.2342337E-3,-1.07893154E-1,8.475323E-2,-9.472845E-2,-2.5745648E-1,-8.2278615E-3,-3.834609E-3,2.497606E-2,3.458464E-2,-8.435364E-2,-5.587236E-2,2.045033E-1,-2.7277818E-1,-7.9814446E-1,3.8015451E-3,2.3336722E-2,-1.8542202E-2,-3.486557E-1,-1.7334761E-2,1.2220893E-1,4.592943E-1,-1.3786547E-1,-6.031507E-1,-1.8187352E-1,-4.674418E-1,1.7160242E-2,-3.2803353E-2,2.0480745E-3,7.962546E-2,6.734636E-3,3.2279424E-2,6.126011E-1,-6.856002E-2,-1.0336955E0,-1.252098E-1,4.5342875E-1,-8.4916425E-1,-4.5157605E-1,6.0626645E-2,2.2858887E-3,1.0449439E-2,1.1289607E-1,-3.776653E-1,9.667328E-2,-1.1127808E0,-1.1758388E-1,1.9984614E-2,-7.9338685E-2,1.3760953E-2,6.2085424E-2,2.0818226E-1,-7.651736E-2,-1.8520229E-2,-1.0975261E-1,-2.4332099E-1,1.4191279E-1,9.621746E-3,-9.855425E-2,-3.4657943E-1,-7.440169E-2,-5.506209E-3,9.142419E-2,1.404069E-1,-1.0746669E-2,2.5803556E-3,-6.0228985E-3,3.0551799E-2,-2.5081953E-2,-5.373425E-4,4.4012047E-2,1.3359389E-2,-1.5229483E-2,2.6139766E-1,-5.7718378E-2,-1.07244186E-1,-8.199921E-3,-4.9273512E-1,1.4260576E-2,-3.6131595E-3,-2.4017088E-1,2.7026474E-1,-2.0681687E-1,-1.160401E-2,-2.5747457E-1,-2.5193766E-1,1.0002468E-1,1.9456312E-3,6.579382E-2,-8.410617E-3,1.8068015E-3,1.7480478E-2,-6.9975937E-3,1.2725918E-1,2.4439728E-2,-1.688574E-1,2.706617E-1,4.9585428E-2,-1.0895346E-1,-2.7474497E-2,-3.889744E-1,-8.549759E-2,3.3723834E-1],"categories":[],"categories_nodes":[],"categories_segments":[],"categories_sizes":[],"default_left":[0,0,0,0,0,0,0,0,0,0,0,0,0,0,0,0,0,0,0,0,0,0,0,0,0,0,0,0,0,0,0,0,0,0,0,0,0,0,0,0,0,0,0,0,0,0,0,0,0,0,0,0,0,0,0,0,0,0,0,0,0,0,0,0,0,0,0,0,0,0,0,0,0,0,0,0,0,0,0,0,0,0,0,0,0,0,0,0,0,0,0,0,0,0,0,0,0,0,0,0,0,0,0,0,0,0,0,0,0,0,0,0,0,0,0],"id":10,"left_children":[1,3,5,7,9,11,13,15,17,19,21,23,25,27,29,31,33,35,37,39,41,43,45,47,-1,-1,49,51,53,55,57,59,61,63,65,67,69,71,73,75,77,79,81,83,85,87,89,91,93,95,97,99,101,103,105,107,109,111,113,-1,-1,-1,-1,-1,-1,-1,-1,-1,-1,-1,-1,-1,-1,-1,-1,-1,-1,-1,-1,-1,-1,-1,-1,-1,-1,-1,-1,-1,-1,-1,-1,-1,-1,-1,-1,-1,-1,-1,-1,-1,-1,-1,-1,-1,-1,-1,-1,-1,-1,-1,-1,-1,-1,-1,-1],"loss_changes":[6.5772953E0,1.1460183E0,6.1047797E2,7.8918586E0,2.002555E0,3.550482E1,1.9090976E0,6.154933E0,7.054621E0,4.3806944E0,5.41148E0,1.4829596E0,3.2995605E-1,1.6629725E0,3.1582866E0,5.755536E0,5.2975073E0,3.8551369E0,5.2869635E0,4.5178237E0,6.5683155E0,5.684063E0,6.228285E0,1.7337731E0,0E0,0E0,1.4789658E0,3.013979E0,5.743779E0,4.519682E0,6.8899417E0,8.414617E0,7.1123905E0,2.867596E0,3.5174143E0,6.3789263E0,3.9619884E0,3.299231E0,4.39776E0,6.78243E0,3.195125E0,5.9876204E0,5.8972425E0,4.3414326E0,3.6975675E0,4.9253316E0,4.5564604E0,3.2447903E0,3.6415982E0,6.3442993E-1,5.0499067E0,7.8093863E0,3.8624687E0,7.03093E0,6.0908785E0,6.7940955E0,2.6733646E0,1.5919628E0,6.8991923E0,0E0,0E0,0E0,0E0,0E0,0E0,0E0,0E0,0E0,0E0,0E0,0E0,0E0,0E0,0E0,0E0,0E0,0E0,0E0,0E0,0E0,0E0,0E0,0E0,0E0,0E0,0E0,0E0,0E0,0E0,0E0,0E0,0E0,0E0,0E0,0E0,0E0,0E0,0E0,0E0,0E0,0E0,0E0,0E0,0E0,0E0,0E0,0E0,0E0,0E0,0E0,0E0,0E0,0E0,0E0,0E0],"parents":[2147483647,0,0,1,1,2,2,3,3,4,4,5,5,6,6,7,7,8,8,9,9,10,10,11,11,12,12,13,13,14,14,15,15,16,16,17,17,18,18,19,19,20,20,21,21,22,22,23,23,26,26,27,27,28,28,29,29,30,30,31,31,32,32,33,33,34,34,35,35,36,36,37,37,38,38,39,39,40,40,41,41,42,42,43,43,44,44,45,45,46,46,47,47,48,48,49,49,50,50,51,51,52,52,53,53,54,54,55,55,56,56,57,57,58,58],"right_children":[2,4,6,8,10,12,14,16,18,20,22,24,26,28,30,32,34,36,38,40,42,44,46,48,-1,-1,50,52,54,56,58,60,62,64,66,68,70,72,74,76,78,80,82,84,86,88,90,92,94,96,98,100,102,104,106,108,110,112,114,-1,-1,-1,-1,-1,-1,-1,-1,-1,-1,-1,-1,-1,-1,-1,-1,-1,-1,-1,-1,-1,-1,-1,-1,-1,-1,-1,-1,-1,-1,-1,-1,-1,-1,-1,-1,-1,-1,-1,-1,-1,-1,-1,-1,-1,-1,-1,-1,-1,-1,-1,-1,-1,-1,-1,-1],"split_conditions":[-5.5237184E0,-1.57E0,5.769114E0,1.6E1,1E0,0E0,7.643622E0,1E0,2.6E-1,1.7E1,9.2E-1,2E1,1E0,1E0,1E0,-4.233633E3,7E-2,1.7E1,-6.7780513E3,-7.8E-1,1.8E1,7.643622E0,-8.135285E1,1E0,2.045033E-1,-2.7277818E-1,1E0,8.7129337E-1,1E0,2.9E-1,-7.8E-1,-4.8707124E3,-1.87E0,-8.381246E2,1.2E1,1E0,-2E0,2.9285235E0,9.3E-1,1E-2,9.3E-1,1E0,-2.7139478E2,1E0,7E-1,2.7239234E0,1E0,1E0,1E0,-2.28E0,4.1E-1,7.5E-1,2.7013612E0,-2.2E-1,2.4212565E0,5.5964023E3,1E0,7.911223E2,1E0,1.9984614E-2,-7.9338685E-2,1.3760953E-2,6.2085424E-2,2.0818226E-1,-7.651736E-2,-1.8520229E-2,-1.0975261E-1,-2.4332099E-1,1.4191279E-1,9.621746E-3,-9.855425E-2,-3.4657943E-1,-7.440169E-2,-5.506209E-3,9.142419E-2,1.404069E-1,-1.0746669E-2,2.5803556E-3,-6.0228985E-3,3.0551799E-2,-2.5081953E-2,-5.373425E-4,4.4012047E-2,1.3359389E-2,-1.5229483E-2,2.6139766E-1,-5.7718378E-2,-1.07244186E-1,-8.199921E-3,-4.9273512E-1,1.4260576E-2,-3.6131595E-3,-2.4017088E-1,2.7026474E-1,-2.0681687E-1,-1.160401E-2,-2.5747457E-1,-2.5193766E-1,1.0002468E-1,1.9456312E-3,6.579382E-2,-8.410617E-3,1.8068015E-3,1.7480478E-2,-6.9975937E-3,1.2725918E-1,2.4439728E-2,-1.688574E-1,2.706617E-1,4.9585428E-2,-1.0895346E-1,-2.7474497E-2,-3.889744E-1,-8.549759E-2,3.3723834E-1],"split_indices":[1,2,1,3,15,1,0,15,4,3,4,3,21,27,35,1,4,3,1,2,3,0,1,17,0,0,19,0,16,4,2,1,2,1,3,22,2,0,4,4,2,21,1,26,4,0,8,26,10,2,2,4,0,2,0,1,25,1,22,0,0,0,0,0,0,0,0,0,0,0,0,0,0,0,0,0,0,0,0,0,0,0,0,0,0,0,0,0,0,0,0,0,0,0,0,0,0,0,0,0,0,0,0,0,0,0,0,0,0,0,0,0,0,0,0],"split_type":[0,0,0,0,0,0,0,0,0,0,0,0,0,0,0,0,0,0,0,0,0,0,0,0,0,0,0,0,0,0,0,0,0,0,0,0,0,0,0,0,0,0,0,0,0,0,0,0,0,0,0,0,0,0,0,0,0,0,0,0,0,0,0,0,0,0,0,0,0,0,0,0,0,0,0,0,0,0,0,0,0,0,0,0,0,0,0,0,0,0,0,0,0,0,0,0,0,0,0,0,0,0,0,0,0,0,0,0,0,0,0,0,0,0,0],"sum_hessian":[8.109645E4,4.0120902E4,4.0975547E4,2.3241936E3,3.779671E4,8.5783386E2,4.0117715E4,1.7216556E3,6.0253796E2,3.309788E4,4.6988296E3,4.8381264E1,8.0945264E2,3.99716E4,1.4611314E2,1.5036418E3,2.1801376E2,1.5074307E2,4.517949E2,2.6509488E4,6.588392E3,4.279705E3,4.1912448E2,4.648872E1,1.8925414E0,7.051227E2,1.0432994E2,3.4995062E4,4.9765386E3,1.07350586E2,3.8762558E1,4.0374512E2,1.0998967E3,1.50517645E1,2.0296199E2,2.5793089E1,1.24949974E2,2.2757153E1,4.2903775E2,4.4738486E3,2.203564E4,1.6479476E3,4.9404443E3,4.2637563E3,1.5948648E1,4.1332053E2,5.8039436E0,4.158183E1,4.9068933E0,8.967789E1,1.4652054E1,9.081368E2,3.4086926E4,4.3514907E3,6.2504785E2,2.5521852E1,8.182873E1,8.114199E0,3.064836E1,3.0191415E2,1.0183094E2,5.794492E2,5.204475E2,1.1351619E1,3.7001448E0,1.5310448E2,4.9857517E1,2.1823223E1,3.969865E0,5.113144E1,7.3818535E1,4.472718E0,1.8284435E1,3.8271255E2,4.632519E1,2.5882908E1,4.447966E3,1.7000738E4,5.034902E3,1.4508772E3,1.9707048E2,4.657727E3,2.8271738E2,3.7159858E3,5.4777075E2,1.2007166E1,3.9414825E0,5.065521E1,3.6266534E2,3.3812017E0,2.4227417E0,3.6485935E1,5.095893E0,3.6783793E0,1.2285142E0,1.0522879E0,8.8625595E1,9.756958E0,4.8950953E0,6.778916E2,2.3024515E2,3.7392366E3,3.0347688E4,1.8009509E3,2.5505398E3,5.6174248E1,5.688736E2,2.2785147E1,2.7367048E0,7.176213E1,1.0066598E1,1.4662035E0,6.647995E0,2.768618E1,2.9621778E0],"tree_param":{"num_deleted":"0","num_feature":"40","num_nodes":"115","size_leaf_vector":"1"}},{"base_weights":[-2.52242E-3,-8.767989E-3,4.7487225E-3,4.1634026E-3,-1.6333514E-1,5.3541217E-2,2.8710407E-3,-1.003276E-3,8.863267E-3,-8.5223746E-1,-5.0766002E-3,-5.861858E-3,2.0438838E-1,2.3177635E-2,-2.7342953E-4,3.784244E-3,-4.1919928E-2,6.228942E-4,2.9665343E-2,-8.686371E-1,-7.3639464E-1,2.3871662E-2,-9.017129E-2,-3.1861123E-1,2.2199897E-2,-6.8490624E-2,2.5734946E-1,1.2329324E-2,1.0626929E-1,-9.973533E-2,2.0447243E-3,9.802206E-3,-2.8732631E-2,-1.7546618E-2,-1.3716038E-1,1.4671588E-1,-2.304311E-3,5.1252834E-2,-3.2070458E-2,-8.111568E-1,-8.9866877E-1,4.347292E-2,-7.549865E-1,7.6894596E-2,-2.9191293E-2,-5.8139715E-2,-3.7934932E-1,-4.9519497E-1,1.76063E-1,-3.8004585E-2,1.8970375E-1,-1.5996823E-1,8.600211E-1,1.8547784E-1,4.7528914E-1,-2.2078149E-2,3.5048597E-2,-1.098931E-1,1.8280625E-1,-5.6783013E-2,-3.926576E-1,9.757752E-2,9.298451E-4,4.1152695E-3,-1.5582389E-2,-2.436021E-3,-5.0014284E-2,-2.4444629E-2,8.588362E-3,-5.6493383E-2,4.1471004E-2,2.2809872E-2,1.8751988E-1,2.9674512E-3,-9.131681E-3,1.0796361E-2,4.6927284E-2,-2.962229E-2,1.1827947E-2,-2.6070875E-1,-2.0922148E-1,-2.7027792E-1,-8.996612E-2,-2.416297E-1,-1.3337392E-1,3.6785934E-2,-1.8693117E-2,1.3529496E-1,-1.2276317E-2,-1.2721788E-2,-1.5403424E-1,4.5366343E-2,-1.5462178E-1,-1.0660406E-1,-3.208204E-1,1.108013E-1,-2.2192197E-1,-8.252721E-2,-3.5493248E-3,7.063591E-2,-2.633894E-1,-2.400185E-1,-1.810813E-2,3.7423676E-1,-1.0355225E-1,4.009039E-2,1.5875545E-1,-7.176839E-3,2.1384141E-1,-1.9299056E-2,3.140492E-2,5.6103384E-3,4.483433E-2,-5.2607592E-2,1.8470821E-1,1.1630114E-1,2.9089665E-2,1.3166493E-1,-2.2726597E-2,-1.5463787E-1,9.3555845E-2,4.6982456E-2,-1.1587205E-1,-6.488464E-4,6.7139366E-3],"categories":[],"categories_nodes":[],"categories_segments":[],"categories_sizes":[],"default_left":[0,0,0,0,0,0,0,0,0,0,0,0,0,0,0,0,0,0,0,0,0,0,0,0,0,0,0,0,0,0,0,0,0,0,0,0,0,0,0,0,0,0,0,0,0,0,0,0,0,0,0,0,0,0,0,0,0,0,0,0,0,0,0,0,0,0,0,0,0,0,0,0,0,0,0,0,0,0,0,0,0,0,0,0,0,0,0,0,0,0,0,0,0,0,0,0,0,0,0,0,0,0,0,0,0,0,0,0,0,0,0,0,0,0,0,0,0,0,0,0,0,0,0,0,0],"id":11,"left_children":[1,3,5,7,9,11,13,15,17,19,21,23,25,27,29,31,33,35,37,39,41,43,45,47,49,51,53,55,57,59,61,63,65,67,69,71,73,75,77,79,81,-1,83,85,87,89,91,93,95,97,99,101,103,105,107,109,111,113,115,117,119,121,123,-1,-1,-1,-1,-1,-1,-1,-1,-1,-1,-1,-1,-1,-1,-1,-1,-1,-1,-1,-1,-1,-1,-1,-1,-1,-1,-1,-1,-1,-1,-1,-1,-1,-1,-1,-1,-1,-1,-1,-1,-1,-1,-1,-1,-1,-1,-1,-1,-1,-1,-1,-1,-1,-1,-1,-1,-1,-1,-1,-1,-1,-1],"loss_changes":[3.6735578E0,8.6977776E1,3.424296E0,9.751238E-1,3.662685E2,1.24123955E1,2.2983437E0,3.7473896E0,3.6046162E0,5.526428E-1,6.734344E0,8.73687E0,5.673477E0,4.349146E0,7.186688E0,3.3516765E0,4.6492577E0,6.4419284E0,7.9533253E0,2.104187E-1,1.4922638E0,5.7419424E0,6.405713E0,7.247123E0,9.221752E0,5.6075416E0,5.048834E0,3.3387594E0,9.238922E0,8.909696E0,3.2440956E0,3.49459E0,7.6064234E0,4.716107E0,5.7759585E0,9.957132E0,5.06759E0,7.0921392E0,7.375285E0,6.909485E-1,2.0043945E-1,0E0,9.3868256E-1,6.5043726E0,5.765398E0,4.4620743E0,5.06026E0,4.4916325E0,4.2203956E0,4.172856E0,1.2015105E1,3.7432225E0,3.200675E0,4.353074E0,9.584658E0,9.105512E0,4.8076935E0,7.058753E0,7.205741E0,5.8665333E0,8.000492E0,1.00953045E1,1.997427E0,0E0,0E0,0E0,0E0,0E0,0E0,0E0,0E0,0E0,0E0,0E0,0E0,0E0,0E0,0E0,0E0,0E0,0E0,0E0,0E0,0E0,0E0,0E0,0E0,0E0,0E0,0E0,0E0,0E0,0E0,0E0,0E0,0E0,0E0,0E0,0E0,0E0,0E0,0E0,0E0,0E0,0E0,0E0,0E0,0E0,0E0,0E0,0E0,0E0,0E0,0E0,0E0,0E0,0E0,0E0,0E0,0E0,0E0,0E0,0E0,0E0,0E0],"parents":[2147483647,0,0,1,1,2,2,3,3,4,4,5,5,6,6,7,7,8,8,9,9,10,10,11,11,12,12,13,13,14,14,15,15,16,16,17,17,18,18,19,19,20,20,21,21,22,22,23,23,24,24,25,25,26,26,27,27,28,28,29,29,30,30,31,31,32,32,33,33,34,34,35,35,36,36,37,37,38,38,39,39,40,40,42,42,43,43,44,44,45,45,46,46,47,47,48,48,49,49,50,50,51,51,52,52,53,53,54,54,55,55,56,56,57,57,58,58,59,59,60,60,61,61,62,62],"right_children":[2,4,6,8,10,12,14,16,18,20,22,24,26,28,30,32,34,36,38,40,42,44,46,48,50,52,54,56,58,60,62,64,66,68,70,72,74,76,78,80,82,-1,84,86,88,90,92,94,96,98,100,102,104,106,108,110,112,114,116,118,120,122,124,-1,-1,-1,-1,-1,-1,-1,-1,-1,-1,-1,-1,-1,-1,-1,-1,-1,-1,-1,-1,-1,-1,-1,-1,-1,-1,-1,-1,-1,-1,-1,-1,-1,-1,-1,-1,-1,-1,-1,-1,-1,-1,-1,-1,-1,-1,-1,-1,-1,-1,-1,-1,-1,-1,-1,-1,-1,-1,-1,-1,-1,-1],"split_conditions":[3.0868484E2,0E0,4.6712558E2,4.8E-1,5.769114E0,7.2E-1,1.4E-1,4.3E-1,-1.3466302E3,1E0,2.3063593E2,2.3589654E0,-9.5E-1,5.930437E3,1.6E-1,-7.1247253E2,6.4779563E0,-2.07E0,8.7E-1,-3.5E-1,2E-2,5.1E-1,1.9E1,7.1E-1,1E0,1E0,1E0,6E-2,6E0,1E0,1.7E-1,7.202341E0,1E0,3.778263E0,-7.5428534E2,1E0,-2.5595195E3,1E0,9.4E-1,6.4E-1,2.66E0,4.347292E-2,1E0,1E0,8.7129337E-1,1.86E0,3.2580965E0,2E-1,1E0,-1.32E0,7.389428E0,2.451005E0,6.022721E0,1E0,8E0,1E0,1E0,7.1669993E0,-5.6E-1,-1.87E0,6.8804045E0,6.9542E0,1E0,4.1152695E-3,-1.5582389E-2,-2.436021E-3,-5.0014284E-2,-2.4444629E-2,8.588362E-3,-5.6493383E-2,4.1471004E-2,2.2809872E-2,1.8751988E-1,2.9674512E-3,-9.131681E-3,1.0796361E-2,4.6927284E-2,-2.962229E-2,1.1827947E-2,-2.6070875E-1,-2.0922148E-1,-2.7027792E-1,-8.996612E-2,-2.416297E-1,-1.3337392E-1,3.6785934E-2,-1.8693117E-2,1.3529496E-1,-1.2276317E-2,-1.2721788E-2,-1.5403424E-1,4.5366343E-2,-1.5462178E-1,-1.0660406E-1,-3.208204E-1,1.108013E-1,-2.2192197E-1,-8.252721E-2,-3.5493248E-3,7.063591E-2,-2.633894E-1,-2.400185E-1,-1.810813E-2,3.7423676E-1,-1.0355225E-1,4.009039E-2,1.5875545E-1,-7.176839E-3,2.1384141E-1,-1.9299056E-2,3.140492E-2,5.6103384E-3,4.483433E-2,-5.2607592E-2,1.8470821E-1,1.1630114E-1,2.9089665E-2,1.3166493E-1,-2.2726597E-2,-1.5463787E-1,9.3555845E-2,4.6982456E-2,-1.1587205E-1,-6.488464E-4,6.7139366E-3],"split_indices":[1,1,1,4,1,4,4,4,1,21,1,0,2,1,4,1,0,2,4,2,4,4,3,2,32,19,37,4,3,13,4,0,13,0,1,24,1,17,4,4,2,0,19,8,0,2,0,2,28,2,0,0,0,24,3,10,27,0,2,2,0,0,12,0,0,0,0,0,0,0,0,0,0,0,0,0,0,0,0,0,0,0,0,0,0,0,0,0,0,0,0,0,0,0,0,0,0,0,0,0,0,0,0,0,0,0,0,0,0,0,0,0,0,0,0,0,0,0,0,0,0,0,0,0,0],"split_type":[0,0,0,0,0,0,0,0,0,0,0,0,0,0,0,0,0,0,0,0,0,0,0,0,0,0,0,0,0,0,0,0,0,0,0,0,0,0,0,0,0,0,0,0,0,0,0,0,0,0,0,0,0,0,0,0,0,0,0,0,0,0,0,0,0,0,0,0,0,0,0,0,0,0,0,0,0,0,0,0,0,0,0,0,0,0,0,0,0,0,0,0,0,0,0,0,0,0,0,0,0,0,0,0,0,0,0,0,0,0,0,0,0,0,0,0,0,0,0,0,0,0,0,0,0],"sum_hessian":[8.089132E4,4.351434E4,3.737698E4,4.01558E4,3.35854E3,1.3840569E3,3.599292E4,1.912833E4,2.102747E4,6.265914E2,2.7319487E3,9.937018E2,3.9035507E2,4.8253096E3,3.1167613E4,1.7125447E4,2.0028834E3,1.506197E4,5.965501E3,5.431942E2,8.339715E1,2.0390173E3,6.929314E2,8.096703E1,9.1273474E2,6.339949E1,3.2695557E2,4.2690923E3,5.562173E2,7.089199E2,3.0458693E4,1.4451565E4,2.6738816E3,1.5957052E3,4.071782E2,2.9489752E2,1.4767071E4,4.420078E3,1.5454229E3,1.9602155E2,3.471727E2,1.5826163E0,8.181453E1,1.01966864E3,1.0193487E3,6.2491235E2,6.801905E1,5.9666756E1,2.1300278E1,6.719828E2,2.4075194E2,5.8467E1,4.9324927E0,2.4726437E2,7.96912E1,1.6978265E3,2.5712656E3,1.4532942E2,4.1088788E2,6.19303E2,8.961691E1,3.503582E2,3.0108334E4,1.3590524E4,8.610419E2,2.327277E3,3.466044E2,6.6883655E2,9.268687E2,3.4366394E2,6.3514244E1,2.5794196E2,3.695559E1,1.0302002E4,4.46507E3,3.861018E3,5.5906E2,7.995064E2,7.459164E2,1.2552158E2,7.0499954E1,3.4536597E2,1.806736E0,6.9005356E1,1.2809179E1,7.676387E2,2.5202997E2,2.3414042E1,9.9593463E2,6.050956E2,1.981673E1,1.3859735E1,5.4159313E1,4.9282772E1,1.0383984E1,1.8081081E1,3.2191966E0,6.58636E1,6.061192E2,2.3160712E2,9.144828E0,6.9261956E0,5.1540802E1,3.7060437E0,1.2264489E0,2.1606319E2,3.1201185E1,2.598178E1,5.370942E1,1.2737522E3,4.240744E2,2.250794E3,3.2047162E2,1.3399788E2,1.1331533E1,1.20290634E2,2.9059726E2,2.2014868E1,5.9728815E2,7.654316E1,1.307376E1,3.1286212E2,3.749604E1,2.6315105E4,3.7932292E3],"tree_param":{"num_deleted":"0","num_feature":"40","num_nodes":"125","size_leaf_vector":"1"}},{"base_weights":[-1.9929952E-3,-6.087989E-3,5.2867895E-3,2.9286435E-3,-3.750174E-2,6.580041E-2,3.0458742E-3,4.3139482E-4,1.6879426E-2,-8.0152386E-1,-3.4735657E-3,3.182144E-2,2.7617508E-1,-1.0973024E-1,4.4561108E-3,-2.5356985E-3,2.1306396E-2,7.2186496E-3,8.449548E-2,-8.2957834E-1,-6.964632E-1,3.1665345E-3,-4.9868323E-2,9.241698E-2,-4.0718153E-2,8.0873764E-1,1.7958334E-1,-5.4678038E-2,-4.7941175E-1,8.308537E-3,-1.9629449E-2,-1.7873345E-2,3.1851986E-3,-9.004762E-3,6.650103E-2,1.7617013E-1,2.9005415E-3,2.4479532E-1,5.434708E-2,-8.5556537E-1,-6.44437E-1,-7.3237586E-1,2.5571322E-1,-2.5389276E-5,8.970439E-2,-2.8185067E-1,-2.5322929E-2,1.1599208E-1,-7.0631933E-1,4.418256E-2,-3.3376083E-1,-1.3634178E-1,9.57577E-1,3.256355E-1,-1.994936E-1,-1.0454084E-1,2.7631146E-1,-2.4468851E-1,-1.1879413E0,3.8061456E-3,6.954525E-2,-7.531173E-2,5.6446777E-3,1.5549466E-2,-1.07395025E-2,1.7674264E-3,-2.3771266E-2,7.1426677E-3,-2.6195567E-2,-1.2248111E-2,2.9690448E-2,1.063148E-2,2.537281E-1,-2.9438464E-2,2.475317E-3,5.46301E-2,2.5046602E-1,1.2729276E-2,1.6469347E-1,-2.6333147E-1,-2.1297164E-1,-6.04785E-2,-2.34844E-1,-2.4046291E-1,-1.5165833E-1,3.6933866E-1,-2.0491964E-1,1.0831545E-3,-2.9362613E-2,5.000713E-2,-4.4245586E-2,-4.692566E-2,-2.4960463E-1,-5.73581E-3,-2.737124E-1,4.3130852E-2,-5.1931348E-2,-2.7754086E-1,2.0718282E-1,-4.1961786E-3,1.228535E-1,-1.5510198E-1,-3.4199417E-2,3.3766595E-1,-7.6254874E-2,1.2273629E-1,-4.4618744E-2,-1.1136128E-1,1.8490472E-1,-1.04300074E-1,-4.5574373E-3,-1.4949861E-1,1.6212738E-1,-2.8543058E-1,-3.0932734E-2,-3.9530158E-1,-1.1979978E-1,-5.8689574E-4,1.1002276E-2,8.708771E-3,5.7515956E-2,-8.64394E-2,-1.4918176E-2,7.4794968E-3,-2.821749E-2],"categories":[],"categories_nodes":[],"categories_segments":[],"categories_sizes":[],"default_left":[0,0,0,0,0,0,0,0,0,0,0,0,0,0,0,0,0,0,0,0,0,0,0,0,0,0,0,0,0,0,0,0,0,0,0,0,0,0,0,0,0,0,0,0,0,0,0,0,0,0,0,0,0,0,0,0,0,0,0,0,0,0,0,0,0,0,0,0,0,0,0,0,0,0,0,0,0,0,0,0,0,0,0,0,0,0,0,0,0,0,0,0,0,0,0,0,0,0,0,0,0,0,0,0,0,0,0,0,0,0,0,0,0,0,0,0,0,0,0,0,0,0,0,0,0],"id":12,"left_children":[1,3,5,7,9,11,13,15,17,19,21,23,25,27,29,31,33,35,37,39,41,43,45,47,49,51,53,55,57,59,61,63,65,67,69,71,73,75,77,79,81,83,85,87,89,91,93,95,97,99,101,-1,103,105,107,109,111,113,115,117,119,121,123,-1,-1,-1,-1,-1,-1,-1,-1,-1,-1,-1,-1,-1,-1,-1,-1,-1,-1,-1,-1,-1,-1,-1,-1,-1,-1,-1,-1,-1,-1,-1,-1,-1,-1,-1,-1,-1,-1,-1,-1,-1,-1,-1,-1,-1,-1,-1,-1,-1,-1,-1,-1,-1,-1,-1,-1,-1,-1,-1,-1,-1,-1],"loss_changes":[2.4068928E0,1.4636123E1,3.9414313E0,1.3987455E0,2.9959766E2,7.4104815E0,4.4583945E0,2.1093428E0,3.9812722E0,8.704834E-1,3.3992002E0,3.9365177E0,7.2724323E0,7.0199203E0,2.568966E0,2.6164098E0,5.806444E0,3.891478E0,3.6691175E0,1.2893066E0,3.9415092E0,2.6663792E0,7.859153E0,9.267218E0,1.0163458E1,4.5438223E0,6.8939342E0,5.0208797E0,7.151038E0,6.5803924E0,5.37329E0,1.0123234E1,4.844771E0,6.523259E0,5.933102E0,1.2496655E1,2.813237E0,4.2998824E0,3.764442E0,4.5213318E-1,2.9761124E0,1.2588806E0,5.1735954E0,3.3128254E0,6.2948627E0,8.984858E0,6.8633356E0,3.8366394E0,4.956749E0,6.745818E0,3.6358976E0,0E0,4.3307896E0,3.6020727E0,5.121459E0,5.7208433E0,8.427487E0,3.391114E0,5.8644676E-1,4.2112722E0,8.085874E0,6.4757695E0,5.053662E0,0E0,0E0,0E0,0E0,0E0,0E0,0E0,0E0,0E0,0E0,0E0,0E0,0E0,0E0,0E0,0E0,0E0,0E0,0E0,0E0,0E0,0E0,0E0,0E0,0E0,0E0,0E0,0E0,0E0,0E0,0E0,0E0,0E0,0E0,0E0,0E0,0E0,0E0,0E0,0E0,0E0,0E0,0E0,0E0,0E0,0E0,0E0,0E0,0E0,0E0,0E0,0E0,0E0,0E0,0E0,0E0,0E0,0E0,0E0,0E0,0E0,0E0],"parents":[2147483647,0,0,1,1,2,2,3,3,4,4,5,5,6,6,7,7,8,8,9,9,10,10,11,11,12,12,13,13,14,14,15,15,16,16,17,17,18,18,19,19,20,20,21,21,22,22,23,23,24,24,25,25,26,26,27,27,28,28,29,29,30,30,31,31,32,32,33,33,34,34,35,35,36,36,37,37,38,38,39,39,40,40,41,41,42,42,43,43,44,44,45,45,46,46,47,47,48,48,49,49,50,50,52,52,53,53,54,54,55,55,56,56,57,57,58,58,59,59,60,60,61,61,62,62],"right_children":[2,4,6,8,10,12,14,16,18,20,22,24,26,28,30,32,34,36,38,40,42,44,46,48,50,52,54,56,58,60,62,64,66,68,70,72,74,76,78,80,82,84,86,88,90,92,94,96,98,100,102,-1,104,106,108,110,112,114,116,118,120,122,124,-1,-1,-1,-1,-1,-1,-1,-1,-1,-1,-1,-1,-1,-1,-1,-1,-1,-1,-1,-1,-1,-1,-1,-1,-1,-1,-1,-1,-1,-1,-1,-1,-1,-1,-1,-1,-1,-1,-1,-1,-1,-1,-1,-1,-1,-1,-1,-1,-1,-1,-1,-1,-1,-1,-1,-1,-1,-1,-1,-1,-1,-1],"split_conditions":[1.3097042E3,0E0,1.4408815E3,6.755897E0,5.769114E0,8.7E-1,1.4865908E3,1E0,1E0,7.8E-1,1E0,1.2E1,-9.9E-1,1E0,1.1E0,-6.1E-1,6E-1,6.7772365E0,1.6E-1,1E0,1.86E0,1.81E0,-1.3E0,1.93E0,6.3128595E0,2.2126603E0,1E0,1E0,6.223806E0,8.6E-1,3.2E-1,-4.785663E3,6.5950427E0,5.6E-1,3.0464253E0,1E0,2E0,1.48E0,7.643622E0,1E0,6E0,1E0,1E1,1.48E0,1E0,-1.42E0,1E0,8E-1,6.6414304E0,1.1E0,0E0,-1.3634178E-1,1.8E1,1E0,1E0,7E0,2.2E-1,2E-1,7.278001E0,1.8E1,1E0,1.17E0,6.71101E0,1.5549466E-2,-1.07395025E-2,1.7674264E-3,-2.3771266E-2,7.1426677E-3,-2.6195567E-2,-1.2248111E-2,2.9690448E-2,1.063148E-2,2.537281E-1,-2.9438464E-2,2.475317E-3,5.46301E-2,2.5046602E-1,1.2729276E-2,1.6469347E-1,-2.6333147E-1,-2.1297164E-1,-6.04785E-2,-2.34844E-1,-2.4046291E-1,-1.5165833E-1,3.6933866E-1,-2.0491964E-1,1.0831545E-3,-2.9362613E-2,5.000713E-2,-4.4245586E-2,-4.692566E-2,-2.4960463E-1,-5.73581E-3,-2.737124E-1,4.3130852E-2,-5.1931348E-2,-2.7754086E-1,2.0718282E-1,-4.1961786E-3,1.228535E-1,-1.5510198E-1,-3.4199417E-2,3.3766595E-1,-7.6254874E-2,1.2273629E-1,-4.4618744E-2,-1.1136128E-1,1.8490472E-1,-1.04300074E-1,-4.5574373E-3,-1.4949861E-1,1.6212738E-1,-2.8543058E-1,-3.0932734E-2,-3.9530158E-1,-1.1979978E-1,-5.8689574E-4,1.1002276E-2,8.708771E-3,5.7515956E-2,-8.64394E-2,-1.4918176E-2,7.4794968E-3,-2.821749E-2],"split_indices":[1,1,1,0,1,4,1,23,12,4,24,3,2,12,2,2,4,0,4,19,2,2,2,2,0,0,33,23,0,2,4,1,0,2,0,16,3,2,0,12,3,32,3,2,36,2,4,4,0,2,2,0,3,16,14,3,4,4,0,3,37,2,0,0,0,0,0,0,0,0,0,0,0,0,0,0,0,0,0,0,0,0,0,0,0,0,0,0,0,0,0,0,0,0,0,0,0,0,0,0,0,0,0,0,0,0,0,0,0,0,0,0,0,0,0,0,0,0,0,0,0,0,0,0,0],"split_type":[0,0,0,0,0,0,0,0,0,0,0,0,0,0,0,0,0,0,0,0,0,0,0,0,0,0,0,0,0,0,0,0,0,0,0,0,0,0,0,0,0,0,0,0,0,0,0,0,0,0,0,0,0,0,0,0,0,0,0,0,0,0,0,0,0,0,0,0,0,0,0,0,0,0,0,0,0,0,0,0,0,0,0,0,0,0,0,0,0,0,0,0,0,0,0,0,0,0,0,0,0,0,0,0,0,0,0,0,0,0,0,0,0,0,0,0,0,0,0,0,0,0,0,0,0],"sum_hessian":[8.073722E4,5.1671402E4,2.9065814E4,4.0148543E4,1.1522857E4,1.0369047E3,2.802891E4,3.40538E4,6.094742E3,4.9036295E2,1.1032494E4,8.9370746E2,1.4319719E2,3.4521704E2,2.7683693E4,2.9816654E4,4.2371475E3,5.3337754E3,7.6096686E2,3.815745E2,1.0878844E2,9.652013E3,1.3804814E3,4.8679337E2,4.0691406E2,2.0852627E1,1.2234456E2,3.0147058E2,4.374647E1,2.3866896E4,3.8167964E3,8.099604E3,2.171705E4,2.53666E3,1.7004874E3,1.3193294E2,5.2018423E3,1.1933577E2,6.416311E2,3.314325E2,5.014202E1,1.05056915E2,3.731525E0,9.309629E3,3.4238327E2,1.3108585E2,1.2493956E3,4.736676E2,1.3125753E1,3.1616388E2,9.075019E1,1.9815584E0,1.8871069E1,8.8419106E1,3.3925457E1,2.6259537E2,3.8875225E1,3.3870968E1,9.875503E0,2.2233271E4,1.6336252E3,1.1909639E3,2.6258325E3,1.6564149E3,6.443189E3,2.1027572E4,6.8947894E2,1.7881267E3,7.4853314E2,3.9487463E2,1.3056128E3,1.0988968E2,2.204326E1,2.6076288E2,4.9410796E3,1.0905742E2,1.0278347E1,6.275974E2,1.4033669E1,2.8322757E2,4.8204903E1,1.252273E1,3.7619293E1,7.856781E1,2.6489103E1,1.6773251E0,2.0542E0,8.977024E3,3.3260464E2,2.5870963E2,8.367367E1,1.07794205E2,2.329164E1,1.2417332E3,7.662462E0,4.3260416E2,4.1063465E1,1.1640159E1,1.4855951E0,2.735667E2,4.2597168E1,4.8749016E1,4.2001175E1,1.663609E1,2.23498E0,7.5303635E1,1.3115467E1,2.8476915E1,5.44854E0,6.979288E1,1.9280247E2,9.658927E0,2.92163E1,4.698165E0,2.9172804E1,7.904317E0,1.9711858E0,1.8917566E4,3.3157036E3,1.2277212E3,4.0590405E2,1.2670773E2,1.0642561E3,2.200842E3,4.2499048E2],"tree_param":{"num_deleted":"0","num_feature":"40","num_nodes":"125","size_leaf_vector":"1"}},{"base_weights":[-1.5680825E-3,-3.5954982E-3,8.75245E-3,-2.754623E-3,-9.476211E-2,1.1060756E-2,-1.3853107E-1,-3.7630235E-3,2.552748E-2,-8.430494E-1,-8.049053E-2,1.2405784E-1,8.370566E-3,-4.5454037E-1,-5.735131E-2,-3.4197348E-3,-8.036431E-2,-1.6784623E-2,8.939273E-2,-1.0757228E0,1.7682034E-1,-1.3035293E-1,7.35476E-2,-4.4666907E-1,1.6399619E-1,1.7614538E-2,-1.469267E-2,-1.8893471E-1,-9.471415E-1,-4.5120296E-1,5.3745426E-2,-4.120238E-2,-2.8212962E-3,-1.3743924E-1,2.757257E-1,2.3606357E-1,-5.1443774E-2,1.4398138E-1,-7.739945E-2,-1.3159859E0,1.8092152E-2,-1.6837648E-1,1.2754425E-1,-4.8498058E-4,5.2645916E-1,-1.049874E-1,-4.6190363E-1,2.3772006E-1,-3.3182728E-1,1.5024813E-2,1.3986968E-1,-1.6583763E-1,-2.417914E-3,1.3235427E-1,-6.6357803E-1,1.4026935E-1,-1.2069777E0,-7.436354E-1,1.3350076E-2,-1.782679E-1,2.0999016E-1,-2.1622766E-2,5.108885E-2,2.0767567E-3,-1.5181572E-3,2.9202113E-2,-6.1931808E-2,-2.9264855E-1,1.1230064E-1,3.114804E-1,5.854423E-2,1.9052133E-3,-4.65398E-2,8.421692E-2,2.3958193E-2,5.682641E-2,-7.0281155E-2,-4.536888E-1,-1.3484731E-1,-6.478627E-2,2.6397025E-2,8.0366306E-2,-1.267914E-1,2.1267042E-1,-2.2594385E-2,2.5362286E-1,-9.538039E-2,-1.854575E-1,1.649173E-1,-7.154637E-2,8.5573375E-2,-1.7366755E-1,6.693359E-2,2.0008173E-2,2.4376512E-3,-8.0262624E-2,8.252302E-2,-7.429276E-2,2.5804061E-2,1.1341001E-3,-7.907965E-2,1.2337899E-1,-3.782843E-1,-2.7854544E-1,2.0712726E-1,-4.1116902E-1,-9.4620846E-2,-9.129532E-3,-3.2001036E-1,1.0470385E-1,-1.4404134E-1,1.51782E-2,-2.3435579E-1,9.660054E-2,-9.801895E-2],"categories":[],"categories_nodes":[],"categories_segments":[],"categories_sizes":[],"default_left":[0,0,0,0,0,0,0,0,0,0,0,0,0,0,0,0,0,0,0,0,0,0,0,0,0,0,0,0,0,0,0,0,0,0,0,0,0,0,0,0,0,0,0,0,0,0,0,0,0,0,0,0,0,0,0,0,0,0,0,0,0,0,0,0,0,0,0,0,0,0,0,0,0,0,0,0,0,0,0,0,0,0,0,0,0,0,0,0,0,0,0,0,0,0,0,0,0,0,0,0,0,0,0,0,0,0,0,0,0,0,0,0,0,0,0],"id":13,"left_children":[1,3,5,7,9,11,13,15,17,19,21,23,25,27,29,31,33,35,37,39,-1,41,43,45,47,49,51,53,55,57,59,61,63,65,67,69,71,73,75,77,-1,79,81,83,85,87,-1,89,91,93,95,97,99,101,103,-1,105,107,109,111,113,-1,-1,-1,-1,-1,-1,-1,-1,-1,-1,-1,-1,-1,-1,-1,-1,-1,-1,-1,-1,-1,-1,-1,-1,-1,-1,-1,-1,-1,-1,-1,-1,-1,-1,-1,-1,-1,-1,-1,-1,-1,-1,-1,-1,-1,-1,-1,-1,-1,-1,-1,-1,-1,-1],"loss_changes":[1.6869907E0,5.1655536E0,4.5020723E0,1.9043971E0,6.5087047E0,3.9612346E0,5.2160573E0,1.6951449E0,6.213774E0,4.4402E0,4.659544E0,6.980522E0,2.714769E0,5.2665663E0,7.188037E0,1.4511888E0,5.883121E0,1.21375475E1,8.353853E0,2.857439E0,0E0,4.5099545E0,4.9857693E0,7.340161E0,1.0458191E1,2.8758001E0,6.7595453E0,4.4019322E0,5.8322105E0,4.9179354E0,4.699098E0,6.5467463E0,1.3786933E0,4.046433E0,5.3081913E0,5.2780457E0,7.2979274E0,6.033556E0,9.528612E0,7.567625E-1,0E0,4.8898554E0,4.6984076E0,6.890315E0,5.8950357E0,5.842354E0,0E0,5.6755E0,5.2256494E0,3.172989E0,1.0453508E1,5.6595564E0,5.458162E0,7.398376E0,4.7966886E0,0E0,1.3742485E0,5.080141E0,2.6421611E0,7.254828E0,4.7526407E0,0E0,0E0,0E0,0E0,0E0,0E0,0E0,0E0,0E0,0E0,0E0,0E0,0E0,0E0,0E0,0E0,0E0,0E0,0E0,0E0,0E0,0E0,0E0,0E0,0E0,0E0,0E0,0E0,0E0,0E0,0E0,0E0,0E0,0E0,0E0,0E0,0E0,0E0,0E0,0E0,0E0,0E0,0E0,0E0,0E0,0E0,0E0,0E0,0E0,0E0,0E0,0E0,0E0,0E0],"parents":[2147483647,0,0,1,1,2,2,3,3,4,4,5,5,6,6,7,7,8,8,9,9,10,10,11,11,12,12,13,13,14,14,15,15,16,16,17,17,18,18,19,19,21,21,22,22,23,23,24,24,25,25,26,26,27,27,28,28,29,29,30,30,31,31,32,32,33,33,34,34,35,35,36,36,37,37,38,38,39,39,41,41,42,42,43,43,44,44,45,45,47,47,48,48,49,49,50,50,51,51,52,52,53,53,54,54,56,56,57,57,58,58,59,59,60,60],"right_children":[2,4,6,8,10,12,14,16,18,20,22,24,26,28,30,32,34,36,38,40,-1,42,44,46,48,50,52,54,56,58,60,62,64,66,68,70,72,74,76,78,-1,80,82,84,86,88,-1,90,92,94,96,98,100,102,104,-1,106,108,110,112,114,-1,-1,-1,-1,-1,-1,-1,-1,-1,-1,-1,-1,-1,-1,-1,-1,-1,-1,-1,-1,-1,-1,-1,-1,-1,-1,-1,-1,-1,-1,-1,-1,-1,-1,-1,-1,-1,-1,-1,-1,-1,-1,-1,-1,-1,-1,-1,-1,-1,-1,-1,-1,-1,-1],"split_conditions":[6.688093E0,6.6414304E0,9.9E-1,6.457999E3,-7.140975E3,6.71101E0,-2.9531802E3,6.316732E3,1.3E1,1.9E1,1E0,6E-2,7.278001E0,1.4E1,6.8994207E0,-2.16E0,1E0,6.6064966E3,1E0,1E0,1.7682034E-1,1E0,1E0,2.6766497E3,1E0,9.7E-1,-5.4196665E3,2.9E-1,-1.06E0,3.6E-1,-2.9E-1,1E0,-8.4E-1,-7.6E-1,-1.81E0,-1.77E0,5.153118E0,-4.9E-1,4.1E-1,1E0,1.8092152E-2,1E0,1E0,-4.785663E3,1E0,1.2E1,-4.6190363E-1,-4.8707124E3,6.9E-1,1.2E-1,6.860758E0,1E0,9.7E-1,-3.2399746E3,1E0,1.4026935E-1,1E0,6.755897E0,1.19E0,-5.7E-1,1.37E0,-2.1622766E-2,5.108885E-2,2.0767567E-3,-1.5181572E-3,2.9202113E-2,-6.1931808E-2,-2.9264855E-1,1.1230064E-1,3.114804E-1,5.854423E-2,1.9052133E-3,-4.65398E-2,8.421692E-2,2.3958193E-2,5.682641E-2,-7.0281155E-2,-4.536888E-1,-1.3484731E-1,-6.478627E-2,2.6397025E-2,8.0366306E-2,-1.267914E-1,2.1267042E-1,-2.2594385E-2,2.5362286E-1,-9.538039E-2,-1.854575E-1,1.649173E-1,-7.154637E-2,8.5573375E-2,-1.7366755E-1,6.693359E-2,2.0008173E-2,2.4376512E-3,-8.0262624E-2,8.252302E-2,-7.429276E-2,2.5804061E-2,1.1341001E-3,-7.907965E-2,1.2337899E-1,-3.782843E-1,-2.7854544E-1,2.0712726E-1,-4.1116902E-1,-9.4620846E-2,-9.129532E-3,-3.2001036E-1,1.0470385E-1,-1.4404134E-1,1.51782E-2,-2.3435579E-1,9.660054E-2,-9.801895E-2],"split_indices":[0,0,4,1,1,0,1,1,3,3,33,4,0,3,0,2,24,1,35,18,0,23,25,1,19,4,1,2,2,2,2,24,2,2,2,2,0,2,4,36,0,22,38,1,35,3,0,1,2,4,0,33,4,1,26,0,33,0,2,2,2,0,0,0,0,0,0,0,0,0,0,0,0,0,0,0,0,0,0,0,0,0,0,0,0,0,0,0,0,0,0,0,0,0,0,0,0,0,0,0,0,0,0,0,0,0,0,0,0,0,0,0,0,0,0],"split_type":[0,0,0,0,0,0,0,0,0,0,0,0,0,0,0,0,0,0,0,0,0,0,0,0,0,0,0,0,0,0,0,0,0,0,0,0,0,0,0,0,0,0,0,0,0,0,0,0,0,0,0,0,0,0,0,0,0,0,0,0,0,0,0,0,0,0,0,0,0,0,0,0,0,0,0,0,0,0,0,0,0,0,0,0,0,0,0,0,0,0,0,0,0,0,0,0,0,0,0,0,0,0,0,0,0,0,0,0,0,0,0,0,0,0,0],"sum_hessian":[8.062213E4,6.738529E4,1.3236842E4,6.677046E4,6.1482697E2,1.3033499E4,2.0334302E2,6.447256E4,2.297907E3,1.0419878E1,6.044071E2,3.020316E2,1.2731468E4,4.06204E1,1.6272261E2,6.4185953E4,2.866048E2,1.3826251E3,9.1528174E2,9.178108E0,1.24177E0,4.5671988E2,1.4768721E2,1.9087238E1,2.8294434E2,9.088816E3,3.642651E3,2.728964E1,1.3330758E1,3.5128036E1,1.2759458E2,9.997307E2,6.3186223E4,2.4754219E2,3.9062603E1,1.6597563E2,1.2166495E3,6.8969226E2,2.2558951E2,7.445108E0,1.7330006E0,3.9833737E2,5.8382507E1,1.277966E2,1.9890606E1,1.5376501E1,3.7107375E0,2.4677237E2,3.6171963E1,8.901382E3,1.8743471E2,2.726665E2,3.3699844E3,1.6703852E1,1.058579E1,1.9444627E0,1.1386295E1,2.1188984E1,1.3939053E1,5.129052E1,7.630406E1,8.729596E2,1.2677108E2,1.1806986E4,5.1379234E4,5.613311E1,1.9140909E2,2.2040315E0,3.685857E1,6.87177E0,1.5910385E2,7.818165E2,4.34833E2,2.1909015E2,4.7060208E2,8.3447235E1,1.4214227E2,5.4622884E0,1.9828193E0,3.3611685E2,6.2220543E1,4.6925575E1,1.1456934E1,1.1385767E1,1.16410835E2,1.4436389E1,5.4542165E0,8.651047E0,6.725455E0,2.2027996E1,2.2474438E2,2.4998997E1,1.1172967E1,1.0475544E3,7.8538276E3,4.6460163E1,1.4097455E2,2.058275E2,6.6839005E1,3.2928257E3,7.7158585E1,1.4505075E1,2.1987753E0,9.116448E0,1.4693409E0,9.167085E0,2.2192101E0,6.94697E0,1.4242014E1,8.470389E0,5.468663E0,3.7842106E1,1.3448416E1,6.346019E1,1.2843869E1],"tree_param":{"num_deleted":"0","num_feature":"40","num_nodes":"115","size_leaf_vector":"1"}},{"base_weights":[-1.1080178E-3,3.5401266E-3,-4.9852994E-3,1.9651277E-3,4.3714542E-2,-7.793163E-2,2.053876E-3,3.3279546E-3,-4.2749576E-2,8.862426E-2,-4.4146713E-2,-3.3557706E-3,-7.428859E-1,5.7310704E-3,-6.8000895E-3,2.1809E-3,5.8851488E-2,-5.825858E-2,2.6412088E-1,-6.861111E-3,1.5867163E-1,3.8085693E-1,-6.8119004E-2,-5.5291946E-3,4.7550586E-1,-7.6801986E-1,-5.7479084E-1,1.5934646E-3,3.501586E-2,-9.462734E-3,1.5896687E-1,-6.748505E-4,2.2088574E-2,1.8064815E-1,-1.20513635E-2,1.5431304E-1,-8.263046E-2,-1.7234354E-1,5.0732684E-1,2.4245182E-2,-8.3157307E-1,2.0328327E-1,-1.12201065E-1,5.49475E-1,-2.8282616E-1,-1.0564251E-1,2.1178386E-1,2.5906833E-2,-3.6031272E-2,6.934904E-1,-2.9655737E-1,-6.8080914E-1,-8.15E-1,-6.578121E-1,-1.6594997E-1,-4.028493E-3,3.4501117E-2,3.0395856E-2,4.341372E-1,-2.7723184E-1,-8.3892755E-3,6.106906E-2,4.3460873E-1,-1.81702E-3,4.6636206E-3,9.141965E-3,-3.0679116E-2,4.0317703E-2,1.6356982E-1,6.744663E-2,-1.6137673E-2,-1.716211E-1,8.865282E-2,-1.3917913E-2,-6.1300963E-2,3.0118525E-1,-9.373801E-2,2.8510153E-1,7.542866E-2,-4.4656783E-2,3.554695E-2,-3.2521743E-1,1.0646203E-1,4.8459943E-2,1.3432418E-1,8.7531805E-2,-1.0807807E-1,2.1792994E-1,-8.798763E-2,-1.1035146E-1,-2.2610864E-2,1.6442128E-2,1.917348E-1,-4.322348E-2,1.4367432E-2,-9.144259E-3,-2.3008157E-1,-8.174156E-3,3.3169657E-1,-2.3015788E-1,-1.5709488E-1,-2.4876963E-1,-1.5004455E-1,-2.3725201E-1,-9.666421E-2,-2.1287784E-1,1.7519245E-1,-6.43431E-3,3.685353E-3,1.7160825E-2,-2.7970083E-2,1.24220075E-2,-3.5890844E-2,1.8287733E-1,-9.679922E-2,3.272252E-1,-1.1878372E-1,3.934867E-2,-3.3229159E-3,1.292935E-1,-7.185237E-3,1.6310017E-1,-3.4949146E-2],"categories":[],"categories_nodes":[],"categories_segments":[],"categories_sizes":[],"default_left":[0,0,0,0,0,0,0,0,0,0,0,0,0,0,0,0,0,0,0,0,0,0,0,0,0,0,0,0,0,0,0,0,0,0,0,0,0,0,0,0,0,0,0,0,0,0,0,0,0,0,0,0,0,0,0,0,0,0,0,0,0,0,0,0,0,0,0,0,0,0,0,0,0,0,0,0,0,0,0,0,0,0,0,0,0,0,0,0,0,0,0,0,0,0,0,0,0,0,0,0,0,0,0,0,0,0,0,0,0,0,0,0,0,0,0,0,0,0,0,0,0,0,0],"id":14,"left_children":[1,3,5,7,9,11,13,15,17,19,21,23,25,27,29,31,33,35,37,39,41,43,45,47,49,51,53,55,57,59,61,63,65,67,69,71,73,75,77,79,81,83,85,87,-1,89,91,93,95,97,-1,99,101,103,105,107,109,111,113,115,117,119,121,-1,-1,-1,-1,-1,-1,-1,-1,-1,-1,-1,-1,-1,-1,-1,-1,-1,-1,-1,-1,-1,-1,-1,-1,-1,-1,-1,-1,-1,-1,-1,-1,-1,-1,-1,-1,-1,-1,-1,-1,-1,-1,-1,-1,-1,-1,-1,-1,-1,-1,-1,-1,-1,-1,-1,-1,-1,-1,-1,-1],"loss_changes":[1.4529514E0,2.3199084E0,2.2570168E1,2.15025E0,5.4616156E0,1.9182457E2,1.3051984E0,2.1806087E0,4.982335E0,6.125337E0,4.7993755E0,3.623689E0,1.2066345E0,3.4320073E0,5.1938367E0,1.9073001E0,5.9868917E0,5.163743E0,5.436165E0,9.984668E0,6.4058046E0,6.135032E0,4.6893835E0,3.3229022E0,5.7059765E0,8.233032E-1,1.7479706E0,4.5918164E0,6.4525237E0,3.3258948E0,4.9933615E0,2.5614147E0,4.391442E0,4.228012E0,4.3522515E0,1.0693725E1,3.9273205E0,3.4084454E0,3.4580612E0,6.139851E0,4.622363E0,4.560137E0,7.654653E0,